apple_apple_inc. -0.22027 2.90711 -0.046311 -0.785286 6.195754 1.048803 -0.502007 0.129531 -0.851779 -0.634642 -0.525472 -0.617974 -1.522127 -1.274801 0.23238 1.912111 0.170758 2.553647 -3.696525 -0.834222 2.43289 1.072159 0.40866 1.534039 0.585851 -1.607587 -1.096824 1.388082 -1.922158 0.178436 0.792174 2.556217 2.190336 -2.662005 -1.99121 0.584794 -2.221346 0.189982 -2.642431 -0.133153 -2.402484 -3.257934 0.85237 -2.893754 1.774031 2.06418 -2.911931 0.971053 -0.693378 -0.67385 -4.157907 1.452085 3.022301 -1.650098 0.875773 2.956859 3.184272 -3.333626 1.754528 0.982293 -1.06674 -1.855405 -0.31014 -1.977894 -2.603252 -1.597602 2.147513 3.569641 -5.955064 0.981088 -2.197183 -4.86865 -4.511882 -0.415167 1.57237 0.887045 -0.588895 2.878332 0.090953 1.50415 -2.953754 2.174137 5.430484 4.970532 0.00353 1.276186 -0.303217 1.020507 -0.462661 1.352922 -0.668424 0.94564 1.218341 -0.504016 -0.105648 -1.033119 -2.127039 0.396297 -3.368355 4.45711 -0.210986 1.303777 0.380727 0.69161 -1.669545 -0.493796 -2.755125 1.504405 -2.333119 -1.581762 1.149127 1.616303 -0.289685 -0.85309 -3.73387 1.559651 -0.43622 -0.637785 -1.903866 -1.179208 -0.888335 2.464656 1.383487 4.090496 1.086359 -2.095234 1.886804 2.160007 -0.110011 -0.806778 -3.209741 0.940153 1.340922 0.79708 -1.299226 1.972124 -0.287719 -0.399202 -0.611615 0.347721 -1.386487 1.125898 -2.988436 3.089206 4.080226 0.177142 0.438286 1.006916 -2.18495 0.640561 -0.771111 -2.175776 -1.490259 -0.262319 -1.074072 1.86065 0.703999 1.387408 -0.579421 0.064552 0.374809 -0.556155 -3.279167 1.760197 -1.488075 2.785408 1.945214 -1.297399 -0.253277 -1.605978 1.841778 -2.125525 -0.411355 3.046713 -3.070035 1.800348 -0.259919 1.437851 1.318207 1.547433 -0.5328 -1.164405 2.456263 2.774555 -1.206865 -3.141836 4.574036 -2.566215 0.430101 0.209256 -5.11153 -4.6199 0.819792 1.365097 0.123499 -0.89123 -2.107742 -0.307131 -1.639011 0.637132 0.570123 -0.970368 -0.724506 -3.485212 -4.896038 0.437017 -0.014328 -2.221869 -1.669952 3.048733 -1.140785 -0.463409 1.04763 2.499111 -0.440907 0.981106 -1.794886 -2.723302 -0.188736 0.547788 -1.284065 -0.351073 -0.633382 0.994589 -1.014653 4.702284 1.598427 0.266786 2.807839 -2.529057 0.062329 1.889578 2.571153 -0.117924 -2.510496 0.070069 -0.91105 -2.709628 1.696329 0.701024 -1.978574 3.412805 -0.736954 -0.214103 0.068842 -1.091664 -2.106613 -2.027867 0.880068 -2.22764 -1.218048 3.074674 0.462689 1.197976 2.222974 -1.785016 0.053295 3.024567 -0.712854 2.606929 0.74042 0.631211 -2.355198 2.756574 1.65283 -4.046368 0.413344 1.251051 0.875369 0.578344 0.388245 -3.455254 -3.280512 3.489105 -0.463413 -4.317717 -1.952468 -1.740698 1.775245 -2.088204 1.057823 6.75958 5.094561 -0.217983 -0.750932 -0.404318 1.143818 1.491935 0.633168 1.579545 0.053859 2.843141 -1.676289 -2.121835 4.486584 1.863836 2.272698 -0.700767 -1.009468 -3.00686 -0.284083 3.261737 3.652644 -1.309509 -1.260774 1.824481 -1.737003 -0.505062 -12.92772 -0.974454 -0.880977 -0.810509 -2.242007 0.060872 -1.740113 1.045516 0.423162 0.434373 -0.783002 -1.463051 0.198716 2.23246 -1.219396 1.368681 0.057637 1.81304 -0.798689 1.204944 -2.649652 -2.391615 -1.037915 -0.652675 1.599468 2.027142 2.85716 -0.95113 -1.129327 1.792668 -0.530441 1.604282 -1.158695 1.424823 1.388579 -0.524704 0.635376 -0.780199 1.379938 -2.267902 0.930876 0.202272 0.003225 0.801254 0.884732 -1.799209 -1.46116 2.804015 -2.195163 0.157632 1.680036 1.501387 -2.120881 -2.55025 2.827029 -1.962139 -0.189604 4.449741 1.722826 -0.978131 0.2776 -0.582065 -0.007322 -1.054108 4.416019 -3.466343 -5.398128 -0.434875 2.258563 0.041289 -2.086169 -2.299795 -0.189386 -9.386936 -1.550299 -1.364753 1.287628 0.901967 -4.661026 -0.305296 -5.405385 2.232114 1.383371 2.934622 -3.128837 -2.929307 -1.437574 -0.142814 1.0799 2.962737 0.766656 0.302943 1.052255 0.268779 -0.045341 1.198414 0.829193 -2.420095 1.689241 -1.044688 -1.182273 2.340307 1.460083 -2.991865 -3.502944 3.684758 -0.748702 -0.518822 0.461253 1.261712 -2.441063 -1.747522 -1.289998 -2.744718 -3.173749 0.113294 1.5338 2.132457 1.147409 -4.49192 -7.279974 1.723163 2.066262 -1.221409 -1.312411 0.792696 -3.542407 2.760459 -1.233067 -2.017516 -2.350016 1.593848 1.257599 2.169046 -0.613242 -0.966068 0.653935 -1.521896 -1.446883 -0.369746 2.825949 0.296979 1.518449 -0.790803 5.53081 1.071046 -1.697241 0.18488 0.082381 -0.711238 -2.32966 -1.025123 -0.432076 2.850176 0.732917 1.125547 0.758666 0.833436 -0.195727 -2.057561 4.401651 1.839363 -0.639912 0.295033 0.096096 -0.498533 -0.105276 0.260084 1.573472 -0.382593 0.887717 -0.442569 -0.634004 0.693011 -0.486815 1.98684 1.277491 -3.857236 -2.318722 1.528519 0.00995 0.414131 0.146268 -3.500124 0.894072 -6.266081 -0.652676 0.249856 0.692367 1.655559 -1.214135 4.072387 0.243069 0.137803 -1.514613 -3.816904 -0.39915 0.534023 -0.179463 -1.913936 -1.139949 3.540191 -0.009004 3.539566 1.794977 2.401152 0.406658 1.156162 0.708035 0.866875 0.253731 -4.123425 3.126868 -2.103255 3.176838 1.807821 -0.533616 -1.583169 -2.49824 0.331168 -1.029848 -0.450756 0.406226 0.480693 -2.048409 -1.601219 0.18466 1.680522 1.279416 -0.415484 0.026954 -9.061754 0.705702 1.375021 1.15738 0.10577 -4.622458 -3.8186 2.99017 0.335248 0.126234 -1.596461 -3.388974 -0.655414 0.83592 -0.61292 -3.350988 0.028523 -0.217315 3.705091 -0.017556 1.539037 2.579386 -1.945412 -2.650734 -0.895036 -1.278625 -1.625373 -1.551121 -0.475992 -2.98103 1.635903 0.131001 0.95347 -0.094453 0.607998 1.490844 -0.614492 0.44082 -0.869308 -0.837272 -4.142434 -1.926144 2.179457 -3.773579 -0.60173 0.584029 -0.609087 0.98959 0.457666 -0.788329 2.053011 -4.124177 -1.442189 2.183553 -1.779404 0.402591 2.167747 1.774116 1.067169 -1.641844 1.811838 -0.241903 -1.325544 -5.761816 -1.34103 -0.806553 -0.683955 -0.84253 1.079839 0.356218 0.294581 2.766012 1.138474 -1.269729 1.023677 -0.191895 0.118327 -1.175565 0.383048 -3.82121 -1.165085 3.482762 1.844701 -1.348107 -0.417989 -2.246344 0.952343 -0.814394 -2.12991 -1.209873 0.610948 0.574449 -0.904477 3.326989 2.370336 1.58931 -3.660378 0.218374 1.406763 -0.021046 -0.385057 -1.043983 1.941501 -0.05539 -1.786132 -4.905114 -1.098275 -4.34601 -0.008161 2.170204 -0.181902 -2.003135 4.224902 -2.035675 0.873842 -0.426706 2.6965 1.545234 1.346961 1.87811 -0.9545 -1.571503 1.830921 2.05565 0.623883 1.690805 -1.267973 4.286065 3.614192 0.361713 -0.096101 1.791517 -2.61466 2.735407 0.18775 -0.166914 -2.664387 -0.150169 -0.142072 1.450597 -0.56803 2.011491 -3.164338 3.181409 -0.164566 -0.180439 -1.737069 2.195701 0.437057 -2.756895 -1.001997 -0.588901 1.297508 -2.939442 1.93753 -2.757973 -3.036139 1.484433 -0.912351 -0.78356 0.182481 2.205437 -0.507852 -0.369992 -2.405244 0.95858 1.091025 2.479166 -0.276925 4.311333 -1.187594 -1.274492 -0.182783 -0.194994 -0.154395 1.371773 -1.777983 -2.375436 0.772894 1.78642 -1.139084 -0.52877 -4.615529 -2.734382 -1.008097 2.309169 0.743031 -0.777872 -0.355353 -0.986552 -0.772128 3.613486 -0.758069 6.198651 -2.802017 2.006038 -0.353596 3.45789 2.242346 -2.571481 3.3485 0.15574 -0.005221 1.257018 0.787224 -1.714359 -0.293371 -3.281499 -2.686778 -0.791309 2.782765 1.058981 -3.797677 0.342302 -2.426387 1.793659 -0.812019 -1.328141 0.297296 -4.047187 -0.817541 -0.428548 -0.330859 3.069191 1.783026 -1.173902 0.374106 0.418306 -3.29513
apple_apple 0.282673 3.227835 -0.073479 -1.252503 5.995331 1.995855 0.082908 2.646753 0.081342 -0.981504 -2.042458 -2.03147 -1.381269 0.410841 -1.394358 2.132504 1.647388 2.706404 -2.829185 -1.021475 2.733163 -1.488059 1.229785 3.057742 3.699875 -1.374511 -2.065725 1.955387 -1.36065 -1.690082 -3.05567 2.905246 3.643222 -0.409504 -0.427674 -2.808616 -3.789666 -0.599728 -3.274207 0.571153 -1.774506 -1.478599 2.750118 1.487576 4.748144 -0.562793 -2.931802 0.002909 -0.061752 -1.699395 -2.307643 3.760336 0.659914 -3.414456 2.45239 2.012375 0.076951 -1.592711 1.550104 1.005822 -4.758722 -1.892552 2.447126 0.039531 -4.20989 1.040633 1.787227 2.52655 -5.34062 0.291015 0.290522 -3.170157 -3.680652 -0.189223 -0.350316 -0.137871 0.125693 1.435859 -1.098431 1.522641 -0.77166 2.036127 3.635391 1.430105 -0.330175 2.604548 -1.047439 0.380354 -4.138669 0.779057 -2.02437 1.658732 1.909784 0.143014 -1.166975 -0.4845 -0.240204 -0.160418 0.573772 0.560917 1.022233 2.624909 3.185718 1.120309 -3.016682 0.764487 -2.304794 3.950175 -0.223086 0.706367 1.26706 1.44897 -0.429218 -0.268625 -1.786031 1.095644 -1.35683 1.19682 -0.935896 -1.989174 -1.464839 -0.412122 1.418634 1.295749 0.776345 -2.835102 2.220392 1.238539 -0.708431 -0.360643 -3.844526 0.18466 -0.980609 0.177352 -1.151604 0.431536 -3.12175 -0.70895 0.51256 0.776243 -4.354528 1.051132 -1.928712 3.712662 2.937489 1.489227 -0.327129 1.388683 -1.109257 -0.229017 0.249079 -0.818348 -1.776459 -1.381225 -2.075013 1.274459 -1.029816 0.397738 -0.513143 -1.874666 0.072166 -3.224698 0.407117 0.543896 -1.712013 1.97156 2.368301 0.389959 -2.151243 -0.122562 1.030762 -0.617256 1.44996 -0.643912 -3.624236 0.902881 -0.970415 0.211534 1.215505 1.915705 -0.467608 0.247452 4.648801 3.470594 -4.180373 -1.005761 0.515007 -1.870407 8.3e-05 2.45105 -0.612125 -5.213446 0.924375 1.79955 2.092227 -1.75067 -4.12255 -1.709015 -0.715247 -0.607704 0.886196 0.591146 -1.746458 -1.487727 -1.861723 -0.536973 1.289418 -0.095624 -1.263008 2.384501 -1.499827 1.813315 2.590532 0.24928 0.172263 1.467138 -1.443737 -3.075726 0.263501 -1.287626 1.581404 -1.676339 -0.605614 1.126823 -1.246483 3.741578 1.875802 -1.827808 3.534787 -2.990408 0.479381 0.222324 1.349123 1.617048 -2.723912 -0.118608 0.075359 1.247249 1.318607 1.862766 -1.286845 0.518787 -0.578201 -1.168226 -0.1451 -1.339118 -1.260999 -2.878353 -0.031891 -1.727418 -1.844201 1.037056 -0.663049 0.990167 2.204332 -1.029142 0.360158 3.006576 1.32022 1.200602 1.598444 -0.670494 -1.338965 -0.97998 0.583575 -0.634436 -0.235544 -0.232486 1.808508 -1.814052 1.948672 -0.019517 -2.345849 -0.148455 -2.088986 -4.282307 -1.502203 1.43166 -2.561052 -1.996036 0.646437 6.401063 0.905118 1.349122 -0.65859 0.368771 1.156211 1.655479 1.316272 3.185553 -0.574422 0.865346 -1.04889 -3.366718 3.959781 0.354989 1.175454 -1.063659 1.631389 -1.406627 4.389134 2.48386 1.569804 -2.754642 0.130361 4.584766 1.521099 1.592019 -20.646015 0.361371 0.701 -0.078103 0.467853 -0.936007 -3.126122 -0.844017 0.471968 0.965392 0.883995 -1.228412 4.705153 1.846845 1.534316 -0.814016 2.006415 -1.322793 0.671162 3.318494 -2.172036 -1.906521 -0.37365 2.511281 1.456224 -1.605426 2.928579 -2.396077 -0.95988 4.159675 -0.612558 -0.09395 -0.707998 2.035447 0.451006 -2.285616 -1.205786 -0.715692 2.761544 -1.346303 1.66849 -1.309129 -0.916161 2.005477 1.493743 1.026558 -3.015677 -0.02305 -0.176253 1.947074 -0.009459 2.063737 -1.825727 -0.82953 4.70985 -0.965409 2.064526 5.117253 1.617738 -1.475624 0.902784 0.791349 -1.151397 -0.99563 3.206558 -1.480569 -4.311245 0.832999 3.482789 -1.41919 -1.223353 -1.447999 0.104323 -9.222831 -1.820935 -2.308928 2.173889 2.320298 -4.630874 1.79631 -2.859498 -0.845949 1.848774 1.68438 -0.620027 -0.823597 -1.362685 0.526181 -1.516568 2.585823 -1.288675 -4.142144 1.825202 -0.153011 -0.215478 2.046602 1.82362 -0.763709 1.627293 -2.07402 -1.759851 0.876483 2.105329 -2.37132 -2.456702 -0.195643 -0.998801 -0.822911 2.077184 -1.21352 -0.28795 -2.045978 0.954544 -3.217294 -1.040759 -1.030088 1.857536 2.514515 -0.730281 -0.880756 -6.21762 0.222954 0.811529 -1.843017 -1.242887 1.867674 -1.036781 6.000778 -3.031922 0.212495 -2.959316 -1.10136 -1.163493 2.440265 -1.322587 1.456586 -2.438686 -4.020477 -2.932552 -0.07816 4.717241 -2.018674 -0.597705 0.86376 3.57928 -0.156364 0.123156 -0.773204 -0.534321 -1.031542 -1.13587 1.722768 -0.859644 1.074044 1.346465 -1.217286 1.348569 -0.064607 -0.586012 -2.461318 2.00253 1.382156 0.989481 -0.730944 -1.199774 0.382148 1.753618 -0.795111 0.412984 1.276857 0.161292 -2.555543 -2.870419 0.75671 -1.145704 1.469431 1.101737 -3.358532 -2.856473 1.948073 0.302136 -1.243937 0.651578 0.28546 -0.86239 -4.114973 1.01408 -2.805429 0.464316 -1.510716 -3.954679 2.165522 2.613185 1.018109 -0.606558 -1.373623 -1.602567 -0.483765 1.059045 -0.583449 -1.586797 -2.592659 -0.346443 1.339 0.832545 2.838331 1.154039 3.564451 -0.268151 -0.439583 1.061514 -4.23801 1.264999 -1.332482 2.270687 2.398503 -1.304893 0.178009 -1.073746 1.456917 -0.376485 -0.576724 -0.920981 -2.855935 -0.044837 1.641441 1.342823 0.053479 0.872304 2.690033 1.723353 -9.21754 -0.319344 -0.673831 1.296935 -0.843351 -5.653676 -3.795488 0.368212 0.50494 0.473387 1.071596 -2.368578 1.086188 -2.23623 1.577966 -3.013763 1.673725 -0.591966 2.243275 -1.613165 4.125287 3.90225 -2.71937 -0.034163 0.688046 0.180298 1.849813 -0.992979 -1.483361 0.628194 -4.025517 -1.99876 2.212699 -0.165942 -0.698832 1.117297 0.49985 1.518395 -1.440152 2.74125 -3.459428 -1.421573 0.540751 -1.87714 -0.566498 -0.05453 -1.033378 5.65666 -3.930551 -0.265998 0.518011 -2.779916 -0.946737 -0.261861 -1.03746 -1.692161 0.892152 0.8644 1.558788 0.463261 1.151516 -1.188323 3.066297 -3.917781 0.924191 -0.221531 1.734268 -2.328327 0.395298 -1.501961 0.323301 -0.45285 -0.303428 -3.025073 2.507457 -0.617379 -2.047795 -3.968193 0.381711 0.129196 1.283764 1.70998 -0.563833 -1.095326 -0.884021 -3.307457 1.316232 1.33419 0.079373 -1.35333 1.460825 1.887189 -0.836247 1.923389 1.984427 2.335923 -1.511007 -0.977191 -0.006365 -1.170601 1.151707 -0.671413 1.804677 0.827398 -0.10081 -5.207892 -2.544514 -1.283076 -1.4076 -0.413169 -1.173211 -1.768897 2.364719 1.234738 -1.033365 -1.138507 0.144052 0.41883 1.943671 3.023396 -1.191465 2.529029 -3.474341 0.735168 -1.627181 -0.861485 -0.92689 2.032108 3.547642 0.477218 0.089111 -1.969378 -1.682393 0.482903 1.805423 -0.891002 -0.566167 -2.742707 0.534689 2.147095 -2.794436 2.075849 -0.466864 3.00706 1.32737 0.789436 0.975162 3.016823 2.403909 -0.863726 2.690846 0.696513 1.489974 -3.131021 3.055588 -2.448615 -2.197267 -0.800644 -1.342538 -1.960665 0.582157 3.339131 3.289485 0.755245 -1.215439 1.721789 2.473507 0.386503 -1.280379 2.509567 -0.800057 -1.696495 0.22669 0.427938 0.280722 2.860907 -1.964911 -0.295351 -2.24065 1.256993 0.978066 -0.731422 -4.340808 -1.056937 -1.507672 1.782327 -1.433719 -1.357356 -0.585003 -0.189448 -2.237075 1.587566 0.694743 3.766288 -2.115939 0.606311 -0.548832 0.926422 0.774671 -3.006582 1.920818 -1.501548 -4.146914 -1.661981 0.984365 -2.376528 1.46555 -2.786734 -1.846451 1.839479 3.762851 2.332943 -3.887496 -2.367914 -0.303581 2.376132 1.116372 -0.904221 0.698375 -4.111401 -0.546662 -0.789247 -0.789761 0.21621 0.495565 -0.973608 0.015938 -1.843724 -6.392804
arm_arm_architecture -1.902521 -0.406577 1.805219 0.296709 0.98732 -0.272641 -1.755317 2.248817 -1.789671 -1.51581 1.403927 -0.273812 -1.823384 1.397236 -2.702541 0.789817 0.61496 2.802973 -1.235129 2.325566 3.248171 1.262342 0.065647 5.339963 -0.017173 1.3907 0.399304 0.879224 -3.308919 0.714937 -2.642706 0.929098 -1.101693 -3.296152 -2.553882 0.999728 -4.49556 2.135568 0.12624 0.120845 -3.206774 -3.630472 -1.537091 -1.138609 2.615684 1.805637 1.528303 0.175208 0.511148 0.214981 -7.14127 -1.378744 1.963589 -2.136869 2.943764 2.411621 2.177642 -2.351181 1.062021 0.687777 -1.81341 0.205346 -0.777598 0.904057 1.843248 1.081189 -1.431907 -1.984744 -5.774204 1.466249 2.540285 -4.144352 -3.817655 0.125921 6.917901 0.730273 1.18837 1.158179 2.25842 0.287493 0.258732 5.091026 3.916055 1.508591 1.127646 0.442918 -1.109024 -0.174405 0.816955 3.924825 -1.586944 2.211854 0.519598 0.742658 1.230743 -0.186301 -1.680006 0.401435 -2.15532 1.548872 -0.316893 -1.880062 1.10118 -0.898682 -0.460189 -1.991934 -0.884172 -1.800742 -0.488109 -0.70336 0.212982 3.756535 1.083099 -2.683226 -3.731331 -0.518775 -0.878641 -2.340836 -0.340859 -2.45996 -0.670037 2.257448 0.792749 3.489295 -0.498694 -1.794808 1.559689 1.205077 -0.500109 3.865351 -1.157817 1.716866 1.463439 -1.823677 -1.568982 -0.468653 1.037754 -0.434102 -2.960012 -0.809586 -1.895835 -1.998821 -0.851697 6.201782 2.718124 0.661387 -0.269119 0.94989 -0.579632 1.026112 0.394051 0.589137 -2.232271 -1.382674 3.516321 -0.175432 2.762669 1.907804 -3.702038 -1.330569 0.332677 -3.45076 -4.439552 2.876342 1.859393 1.101013 2.978985 -0.819486 -0.821193 0.79173 -1.574885 -0.908135 -0.422531 4.591122 -3.116186 0.284173 1.395591 1.201235 1.012141 0.084694 -0.457539 3.078236 1.9512 -2.105881 -2.944895 3.63467 2.032255 -1.024493 3.811144 -0.863702 -0.722439 -6.493418 0.283352 1.970405 -0.840115 -2.397821 2.057696 1.359459 -1.932853 2.228276 -0.255219 2.278754 -1.669628 -1.781142 -4.560376 -0.687222 4.071778 -1.295746 -3.085081 -0.411669 -1.862175 -2.655485 0.14853 0.823729 1.155915 -0.588078 -2.472096 -3.636478 1.709103 0.1193 1.432137 -0.149342 -1.073369 2.236329 -1.071853 5.61476 2.480037 -0.844129 -0.144085 -2.41528 0.259033 1.537631 0.014791 -4.100061 -2.027173 1.23608 -0.488254 -1.204084 -1.324731 -0.12942 -1.52166 6.652232 -3.980403 -1.947765 0.106731 -1.879544 -1.349634 -4.08977 0.484304 -0.490218 0.263427 3.08675 2.870027 -0.808405 2.181136 0.756557 0.198925 -0.155274 -0.856505 2.868266 1.901557 -1.533734 0.695153 0.085146 1.3834 -2.981589 2.246963 0.767081 1.536351 -0.773135 -1.639169 -2.303072 -0.825014 0.334987 0.866387 -0.4623 -2.309615 -2.930816 1.732168 0.284252 1.526062 4.445777 5.68497 0.1008 0.014135 2.235605 3.050717 -1.713785 1.303334 -1.211966 -0.659122 1.393828 -4.005527 -2.157887 1.894017 2.495789 0.938745 -0.530076 3.324014 -0.937838 -2.536813 2.837098 1.131173 -1.658384 0.556833 1.810673 -2.680832 -5.217261 -14.348773 -0.384907 -2.884212 0.614716 0.009538 -0.420811 -0.880031 0.856888 -3.288281 -2.777618 -1.946454 -0.877329 0.340613 0.303053 -0.997405 -0.019354 -0.687487 -2.964186 -0.889087 0.461037 0.842467 -3.644589 -0.476611 -1.454668 0.667654 -1.123712 -0.732087 -0.158797 -0.725594 -1.343063 -3.254464 1.308072 -1.299126 0.519192 1.381377 0.718657 -0.373431 0.110155 1.0293 -3.815617 -1.297208 -2.139376 -1.219819 2.451258 -3.510335 -1.643356 -0.200527 2.299086 -1.934158 0.987238 -0.032542 0.114523 -1.181198 -2.428679 -0.118737 -0.672613 2.135036 2.861165 0.874998 1.969308 0.74124 -2.10905 0.259316 -0.67276 0.053645 -1.76884 -1.63115 -2.306175 0.343226 0.53871 -1.486765 -1.80967 0.333015 -9.594541 1.60652 -1.293025 1.431325 2.132988 -3.961278 -1.462672 -3.353146 0.739603 1.317547 1.886235 -0.540206 -0.21962 1.071066 -1.550579 0.293539 3.057638 -1.182618 -1.022188 0.458034 -0.732681 0.352024 -2.120951 2.472121 -2.608221 0.085195 2.370779 2.694374 0.402021 -1.27527 -3.36523 -4.184061 1.546862 -1.6889 1.106089 0.86298 2.561412 0.835092 -2.444709 1.676033 -3.76506 0.582128 0.405514 1.970618 3.469979 1.159475 -2.290131 -6.43749 1.150967 -0.695893 -3.686821 0.765852 -0.568833 -1.050734 3.433288 0.453168 -2.744396 -1.358084 0.311661 1.956721 1.027047 -0.274585 -0.594888 -0.282242 2.86576 -4.195578 -0.379297 1.857683 -0.088301 0.591028 -3.511169 0.764618 -1.850474 0.485494 0.078884 -1.349326 1.602675 -0.401409 1.472553 0.246828 1.499864 0.28778 2.644099 -2.802673 1.192876 2.515632 -2.274658 3.337614 3.278484 -0.159146 -1.615383 0.677185 0.201287 -0.400387 -1.915684 2.294631 -0.260759 -3.216092 -2.062884 5.529 2.152885 -0.402088 0.111524 0.863031 -2.716575 -0.483154 -2.487743 -0.099525 -0.465918 0.806288 1.671421 1.528861 -1.297517 0.567102 0.902136 -0.642291 0.635952 0.373259 2.314795 0.190967 -0.139526 -1.57488 -3.367636 1.175537 2.550312 0.427146 1.275627 -0.341523 -0.122792 0.815433 2.918972 0.130363 0.095368 0.887019 -0.183168 1.103905 0.567888 3.336101 -2.728406 3.47527 1.262791 0.467163 1.024826 -0.509706 -0.032376 -1.165382 0.812605 -1.13202 1.196765 -0.086119 0.596645 -2.736679 1.03584 3.166419 -0.910482 -1.192214 1.9497 -0.717959 -7.111409 0.658547 -0.480314 -0.340916 0.535343 -6.168396 -3.301705 0.659421 -1.505262 1.46456 -0.816049 -1.116734 0.285519 1.839141 -3.198843 -0.895905 0.685463 -1.659263 3.157073 0.675468 -2.43988 0.678194 -4.58407 0.366904 -1.195612 -0.216801 2.214935 -0.733193 -0.578587 -2.475072 2.124364 -2.178598 2.53128 -1.913368 1.723328 1.242577 -1.625208 1.403069 -1.393415 -0.530691 -4.259619 0.865847 3.141341 -3.420555 0.341431 -1.510951 1.695429 1.294186 2.163406 -1.823385 -0.69349 -2.097612 -2.703876 0.482375 -1.491131 -1.549184 0.42432 1.579491 -1.625289 -0.346184 2.975862 0.32258 2.29044 -2.834832 -1.007073 3.936473 0.584533 -5.479874 0.070783 1.640568 3.407535 4.104356 -0.186137 -2.124959 -0.263869 0.600658 -0.062675 -0.127186 2.121902 -0.393636 -1.087554 2.525099 3.298436 -3.479588 -1.498253 0.591235 0.134211 -0.644815 -1.06555 -0.000609 2.134553 0.221622 -0.820451 4.10709 2.324356 1.98742 -3.076129 -4.081189 0.837161 1.149693 -0.78217 -2.061383 2.703978 0.879697 -0.295264 -2.953593 1.358118 -2.095187 -2.189333 -0.222082 -1.878893 -6.021845 -1.875848 -0.448485 1.588577 -1.319726 1.806102 2.093882 -0.498813 -1.396134 -2.556591 -0.932305 -3.573374 0.731341 3.180303 0.25323 -0.476635 5.645616 4.689134 -0.029584 1.022797 2.371558 -1.948664 1.971603 0.271862 -3.746352 -2.053769 -1.853401 -0.013626 0.091327 0.499291 1.256577 -1.971529 0.925784 2.085721 -0.641924 0.732963 -0.812605 -1.345819 -1.88319 -2.951569 1.302983 -2.323608 -2.979439 2.421526 -0.643528 0.134952 -1.56657 -2.163827 -0.128228 0.285283 3.947236 -6.492078 1.386424 -3.084531 -0.150866 1.45794 0.134594 0.184269 0.344622 1.789827 -0.960559 0.552422 1.188758 0.576245 0.449597 1.426826 -5.347103 0.187759 -0.103363 0.05589 0.200136 -4.809013 0.285622 -1.532714 3.418022 1.921616 -2.883261 3.058372 0.106218 -4.500652 4.122851 -0.688864 3.461935 -2.694187 3.666417 0.015978 4.421757 -0.790686 -1.283934 3.569373 0.714098 4.074503 0.344937 0.321482 -0.590738 0.460298 -0.670356 -0.669912 -2.564148 0.082387 -2.80388 -0.54954 0.613419 0.08171 -2.345294 -1.242633 -2.265203 1.094651 -0.876061 -0.413225 0.679352 -0.949149 4.429817 1.001143 -0.957139 -1.324108 -0.733739 1.356042
arm_arm -0.413365 1.923058 0.729385 -2.31174 2.038872 1.381821 -1.667717 1.807566 -1.038892 -3.338768 -1.445444 -0.557499 0.866152 -0.771686 -3.345072 0.404765 1.690501 2.306214 -3.537712 0.781434 4.177287 -0.029365 1.492484 1.031985 1.39315 -0.217566 -1.077017 2.464957 -3.87831 -1.047233 1.44618 0.115488 -1.673669 -0.637221 -0.32647 -0.483679 -1.314835 0.393137 0.056131 0.296755 -1.54575 1.06547 -0.902833 -0.627277 3.160214 0.945992 3.469555 -1.481683 3.328326 2.0209 -6.288938 -1.83031 0.727607 -3.353546 2.544151 0.88452 2.00267 -2.822612 -0.503605 0.471914 1.844021 0.053516 2.78541 1.178566 1.979381 0.893908 -0.002182 -0.003408 -3.17309 2.545711 1.99098 -1.042813 -1.328055 -1.11623 3.833521 -0.420046 0.658831 -0.263533 1.247663 -0.230011 -3.49649 2.994289 -1.082159 0.240863 -1.035675 0.745339 0.568313 -2.972211 -1.314104 4.160785 -0.31842 2.181208 0.51956 1.920029 -1.729394 -1.944723 0.74136 -2.347068 -3.379369 -0.412831 0.862803 -4.837159 0.99417 -0.43395 1.341323 -1.517159 2.103397 -0.943105 0.019435 0.786298 -1.576169 -0.19238 1.550435 -1.485283 -4.486363 2.641186 0.782243 -2.873417 0.961437 -1.084221 -0.202091 1.955677 0.797138 0.498622 -0.315757 -1.947297 0.447977 1.663094 -0.214098 2.009283 0.18565 1.044994 0.928561 -2.213416 1.711738 1.499791 0.671757 -0.30376 -2.68554 0.188302 -0.625368 -4.106015 -2.682886 5.493606 1.953122 -0.611769 0.036434 0.465066 0.369565 0.898666 1.076378 -0.210182 -0.921537 -1.889203 1.683473 -0.669426 1.884568 -0.666607 -2.278757 -0.502705 2.01851 -4.270209 -0.072833 3.100935 0.320216 2.294061 -0.011679 1.503216 -1.464263 1.193361 -0.361443 -0.418082 2.513044 2.943762 -2.299487 -0.06487 -0.295497 -0.129912 -1.032014 0.766851 -0.20198 2.460613 1.84419 2.465325 -1.905558 2.398647 -0.251096 -1.723835 0.874395 -0.145718 1.219528 -5.585166 -0.210388 0.389895 1.473794 -2.787714 -1.979058 0.701059 -2.927244 -0.101477 -2.527175 2.90345 -0.636091 0.153484 -0.184119 0.105929 4.80601 1.439795 0.409762 -0.608641 -0.620611 -0.34061 -0.277411 1.721891 0.371088 -1.055968 0.509688 0.221751 -0.783107 -1.318202 1.197653 0.95716 0.312687 2.351696 -0.280088 4.384322 1.035599 0.396656 -0.428345 -1.850029 1.483102 0.526943 2.082452 -2.83073 -1.716374 1.011378 0.539611 1.507135 -0.895218 -1.766178 -2.002105 5.535791 -1.543809 -0.624251 0.088613 -1.784557 1.902148 -0.467774 -1.864743 0.837396 -0.274408 0.677723 -0.697813 -0.128207 4.643917 -0.37158 0.721848 -1.44945 -0.843523 0.828008 3.252938 -1.562722 0.324745 1.107458 -2.007272 -1.891475 1.133293 -1.272067 3.456989 -1.833108 -0.194681 0.551203 -2.053571 0.257325 2.009115 2.783023 0.433869 2.306181 -0.978062 -2.638724 1.660485 2.204949 4.454122 0.598355 -0.013663 -0.232981 2.813333 3.866075 0.246411 -0.410322 -0.936792 1.822941 0.253251 -1.168402 -0.1224 0.657187 0.297032 -1.12898 2.360406 -0.697494 -1.441514 0.027795 -0.003136 -1.714482 2.600902 -0.284554 -2.139189 -2.893381 -27.625166 0.348785 -0.142164 -0.073714 -0.728267 0.187257 -0.095301 -2.806375 -3.205952 -3.721852 -1.218276 -0.475175 3.193495 2.104585 1.920994 -1.030161 1.152028 -0.324038 -1.250512 2.740818 -0.524279 -3.095522 1.306148 0.002729 1.095891 -6.231933 -1.242195 -3.600806 -0.331044 -2.047126 1.35191 2.308479 -2.4101 1.689288 0.722555 -1.519165 -1.18981 -1.473184 1.047616 -2.663372 -2.135585 -4.363881 -1.341324 3.798414 -2.618593 -1.291088 -1.928251 -1.613367 -1.104499 -0.746453 2.220741 -2.271799 -0.339091 -1.222046 2.427595 -0.019526 3.729504 3.047989 -0.769185 -0.703815 2.411385 -1.467005 0.176354 -2.144904 -0.707257 -1.336999 -1.777133 -4.55869 1.60689 -1.45999 -0.299248 -1.29935 0.781221 -8.592682 1.592461 0.089651 4.489535 2.943234 -4.24987 -0.701705 -4.390488 0.460104 0.340501 -1.396879 -2.48598 1.443038 3.130366 1.51753 -1.249034 2.157705 -0.369461 0.501377 0.53443 -0.427209 -1.08823 -1.072989 -0.858157 -1.624549 0.893701 -2.013754 2.544341 -2.355737 1.809152 -3.576402 -3.125599 1.921404 -1.853845 0.859242 -1.045879 -0.421619 0.30101 -1.830899 2.587557 -0.717624 1.972027 -0.516197 1.763461 0.613162 -0.420925 -1.023012 -2.977153 -0.765813 -1.842046 -5.326366 1.624094 -0.676813 -0.224541 2.352533 1.524199 0.316505 -1.535446 -3.947144 1.578753 2.878093 1.112978 -0.380011 -0.912222 -1.523191 -2.459296 -0.520165 2.79567 1.075166 -1.165848 -1.821854 -3.230575 -1.417971 4.548413 -0.912164 -4.53209 3.246135 -1.267796 2.507918 -1.593286 -1.563081 2.768794 2.471605 -1.13736 1.475941 1.201226 -2.598109 -0.747368 0.508712 3.071057 2.670723 2.010009 -0.248173 -0.638076 -3.43038 2.866601 -1.916801 -2.637687 -0.720675 1.854415 1.671199 -3.323641 -2.356094 -0.46697 -3.116941 -1.044624 -0.436984 0.115928 -0.531546 0.770124 1.900494 -0.037776 -2.5913 2.620972 -0.941483 -0.645421 1.056764 1.616947 1.422317 -0.466027 0.081276 -0.196762 -0.2694 1.43282 2.61327 -0.452831 1.579019 -0.639798 -3.515651 -0.792667 0.420417 -1.039822 1.960532 1.666092 2.694059 0.338706 2.079761 -1.190652 0.3192 -0.808716 2.03421 0.066476 1.108537 -2.005886 -3.29771 -1.618245 2.435628 0.069464 1.605278 -2.490554 0.138497 -3.42392 1.79951 2.358995 -0.168013 1.418955 -0.25994 0.000575 -6.539525 -1.749672 -2.142984 -0.820239 -0.724582 0.333114 -3.839191 2.00254 -2.629994 1.958366 2.303543 -1.671962 1.908285 1.158647 1.653784 0.304191 0.346901 -2.240463 0.945985 1.00965 1.387435 -1.833117 -3.870282 1.786626 -1.521487 -1.23374 2.963337 0.904816 -0.841369 1.170235 -1.606901 -4.776125 1.731613 -2.401721 1.034225 1.245943 -0.996924 3.122228 -1.53236 0.797834 -0.11976 -0.305887 -2.264405 -0.605176 0.450279 -1.292556 2.599756 3.679245 -0.006488 -0.1528 0.856184 0.550265 -1.723855 -0.201861 -0.5256 0.258449 0.948623 0.041388 -0.17218 -1.593976 2.475957 0.460395 2.651961 0.755658 1.285103 3.239621 -0.159152 -3.49313 -1.344711 0.144401 -0.029549 2.13666 -0.85918 -0.548277 0.548506 -0.29479 0.268132 1.471709 3.532808 0.328767 0.12954 0.735952 1.04986 -2.071751 -2.070833 -1.718069 0.756592 1.65464 0.722869 -0.921171 2.425749 0.158582 -0.733402 1.507643 1.823969 2.019201 -1.638957 -2.89791 -0.172807 -1.237857 -0.027894 -0.395924 2.054878 -0.38755 -0.218468 -1.900587 1.462166 1.89409 -2.109822 -2.124498 -1.945418 0.075227 -2.667866 1.754301 -0.745872 -1.152024 0.55837 0.88213 -2.052694 0.213142 -2.406166 -0.751894 -7.411705 3.185068 1.847244 1.712912 0.740636 1.018747 2.919334 -1.393131 -1.042208 0.221261 -3.43195 0.21803 -0.312206 -4.074722 -3.440104 -1.762653 -0.159501 -0.537553 -2.643574 3.655922 0.584971 -0.520347 0.594568 -2.592896 -1.67244 -0.641819 -1.827669 0.967227 0.93577 0.548019 -1.795643 -3.076398 3.899256 0.598591 2.319912 -2.929081 -1.305536 -0.216882 0.817409 4.831059 -2.145766 1.052623 -0.391118 -1.066537 1.498685 3.137333 -0.065246 -0.461549 0.354754 0.625368 2.13 0.410891 0.691731 1.62835 1.835658 -0.969949 -1.934937 1.313451 0.47952 -0.495284 -0.080381 -0.454128 -1.95782 2.283258 -3.876624 -2.215056 0.340212 1.503733 -1.200115 0.851612 -0.628814 1.603845 -3.51699 0.397303 -1.650351 0.723554 0.673717 -1.288579 1.287469 1.55235 2.812176 -2.06157 -1.193877 0.432133 1.017437 0.158049 0.021239 -1.085149 0.59479 0.230376 1.192874 2.318959 1.134173 -4.04762 -1.727136 -0.993337 -0.347364 -0.109986 -0.553263 3.672836 -1.120378 1.225831 0.237575 -2.750942 -3.530453 -1.252085 0.166803
bank_bank 1.10233 0.060456 -0.928229 -0.42352 4.258749 1.07652 -1.311286 3.124949 -1.892801 0.730755 -0.081681 -0.944071 -1.149508 0.272966 -3.098567 0.289185 -0.365833 3.098766 2.987242 0.603446 -1.212001 1.247971 4.982249 1.878265 0.116386 1.116125 1.341599 2.377444 -0.450903 -2.451512 2.442846 2.80492 2.453077 0.781474 1.009072 -0.661081 -0.930131 -0.135608 -2.523238 1.526317 0.308363 -2.453318 -0.706246 2.289387 -2.134503 -1.320204 -2.29162 2.706798 -2.931143 -0.697191 -0.540668 3.315439 -0.01576 -1.869809 -0.144154 0.06657 -2.006587 -1.367338 0.416977 -1.298218 1.870914 1.287579 2.321638 -1.308985 0.375674 -0.385276 0.78147 0.956265 -3.255426 0.198864 0.584041 6.316275 -3.087341 -2.697768 0.544728 0.728906 -2.7724 1.039964 0.688386 1.581572 0.586909 -3.530573 -0.314492 0.43683 0.411334 -0.247278 0.116643 0.254558 -2.463178 2.807827 -2.343391 1.248157 -1.008916 -1.130076 -2.368964 0.447417 -1.852953 -0.965273 -0.215085 0.410695 1.323823 -3.85585 0.399566 0.393774 -1.517753 0.614107 -4.102127 -3.132642 -1.438486 0.53038 1.185008 -1.844527 0.203795 -1.948496 -1.85461 -0.528281 0.477279 -3.648779 -1.341113 -2.571785 0.873593 1.333187 1.353021 2.212768 2.985654 -1.604791 1.92401 1.902658 -0.920706 -1.251285 -1.191135 2.750079 -1.119149 -0.060516 0.697075 -0.701829 -0.519559 -1.135484 -0.362017 -0.67621 0.440477 2.914242 -0.549734 5.651567 1.401687 1.300881 -0.111989 -1.917139 -4.126556 0.403133 -0.404086 1.112625 -0.354601 0.715453 0.502382 -0.01926 -1.340851 -0.002595 -3.505635 -0.108295 2.053426 -1.236361 0.72599 0.381846 -3.351857 -4.585341 3.169342 0.289093 -3.015985 0.171525 -4.363185 -2.022149 1.10624 0.007994 3.679131 1.471582 -3.064982 -1.504362 1.034468 0.977648 -0.790284 3.552994 1.478029 1.766138 1.779789 -1.531477 3.099621 0.984095 2.630407 -0.973773 -0.729955 -2.414562 -0.16132 1.292957 -0.970422 -0.227902 -0.646699 -0.714415 -1.203005 -0.998976 -1.132556 -2.111624 -1.955532 -0.296303 -1.657082 0.895183 1.020511 1.536774 0.794726 -1.242616 -0.58485 0.094078 -0.58179 1.358591 0.728063 0.864248 -1.683891 -0.573703 -0.849551 -0.08224 1.497122 -1.15179 0.686724 2.417678 -1.73526 3.005359 1.25923 -0.895542 1.025658 -1.558077 2.072298 2.736203 2.079018 -3.421721 0.340788 -1.693894 -4.121186 0.128184 -0.062497 1.478406 -0.510223 -1.034862 -1.780232 0.409866 -0.757947 1.111604 -1.035394 -3.177319 -1.082325 -0.430505 -1.961096 -1.213332 -2.199869 -1.154777 2.919894 1.882851 1.741813 -0.489539 -1.305064 2.04318 3.431121 -0.652387 1.109547 1.417465 0.500131 -2.059801 -1.251997 -1.692119 2.491661 -0.167245 0.818672 0.648605 -0.43307 3.858594 4.361829 -1.310623 -0.727554 -0.765837 -0.722078 3.345315 -0.369524 4.230101 0.503262 -1.044699 -0.770823 1.129891 -1.223157 8.04783 0.790018 -0.287152 0.279554 2.207056 -4.134477 -1.126938 -0.152798 1.277176 0.05656 3.277691 2.523713 -0.223388 2.444231 -0.059425 0.62581 -2.376239 1.189016 1.739675 0.185217 1.045102 -23.831121 3.127038 -0.474262 -0.073485 0.914586 -1.432016 0.616079 0.063523 -5.74807 -0.553399 -3.290933 -1.187567 2.995719 0.468358 -1.192441 -1.5614 1.490203 2.232459 -0.596156 -1.599142 -0.691809 -2.975428 -0.756601 1.54525 0.920295 2.637294 -1.426833 -1.292595 -0.185867 2.105466 -1.6185 -0.764629 -0.002661 -0.358406 0.644416 -2.766188 -0.552371 1.634171 3.187193 -3.902149 1.203614 3.8293 -0.632888 1.918824 1.556141 -1.583728 -0.536589 2.971006 -1.582819 2.712614 1.550443 0.0241 0.458761 -1.019492 1.40235 0.815575 1.471005 2.68163 1.888732 0.6608 -2.105016 0.973185 0.929926 0.679742 -1.530894 0.516607 -3.871498 -1.161046 0.234644 -2.506756 -3.704573 0.089708 2.347692 -9.576258 -1.015574 -3.516131 4.988691 -0.407926 -0.623565 0.013595 0.698105 0.452205 -0.338832 0.592022 -1.360238 -0.446042 -0.525577 -0.898609 -3.364031 -0.428744 0.388112 3.493294 2.523846 -2.678061 -0.978716 2.221356 -1.685315 -0.131285 -0.710628 -1.721043 -0.890451 2.686841 0.634959 -0.972562 -1.589953 1.157878 1.483269 -0.390708 -2.670902 3.455276 2.332863 -2.896425 2.245905 -4.225522 3.124799 1.390353 -0.853045 0.293297 1.018348 0.161216 -2.435416 -0.235938 0.496604 -4.991323 -0.779331 -0.003702 -0.405708 -0.000527 -0.086277 -1.133479 2.972647 0.347701 -0.541962 0.465327 0.292066 0.215982 1.72336 1.537502 -2.108419 -1.114785 2.607169 -0.007201 -1.43633 -1.303643 -0.332233 -0.497707 -2.122693 2.648625 0.427659 -1.617312 -3.496782 -0.059745 -0.503505 0.567266 2.844145 3.154928 4.243137 -1.133549 -2.244531 -2.445484 2.874791 -1.194411 1.399522 0.792368 -3.651255 0.518423 -2.928103 -2.454849 0.615936 0.725589 -1.96801 -0.4443 0.214331 2.887618 -0.141801 0.016424 -0.74403 -2.165158 0.619346 0.240886 -0.779019 0.488954 0.05404 -2.443004 0.556617 2.63973 2.375491 0.551858 0.039472 0.909544 -1.278977 2.72192 -0.159291 0.122898 -0.759682 -3.149484 -1.435755 1.252939 -1.297853 0.96966 -4.18086 1.87665 -1.281125 -1.222375 1.989644 1.505556 0.307988 0.748148 -0.345754 2.032413 -3.844634 -0.819276 -3.612994 -2.142824 0.046739 -2.504517 0.943677 -0.757214 0.274917 0.245858 0.171334 0.089241 -0.819177 -0.743754 -3.779608 3.917764 1.136709 0.412848 -2.941867 2.763134 -1.515695 -4.75385 -0.186915 -1.514253 0.487159 -0.60179 -1.892821 -4.437755 1.927656 -1.960907 -0.995122 -1.237634 3.696905 -0.710963 -0.030628 1.575854 0.985716 3.968552 0.796622 3.872564 2.795984 0.402661 -0.205288 -1.001984 -1.554132 3.250978 0.226873 -0.588774 -0.27632 0.661812 1.607732 -3.244596 -3.509812 -0.344105 1.281865 1.176215 -0.830741 0.605216 0.741802 -1.681134 2.919142 -5.277466 0.601216 -0.078667 -0.405193 1.244805 -4.491765 -2.294746 2.193227 -1.111394 -1.424009 -0.033007 2.823892 -0.32443 -0.965023 -1.519912 -2.355465 0.947823 -2.080029 -2.73452 0.920945 0.450547 -1.15511 -0.11586 -3.433369 1.916568 1.540099 0.332621 -2.057483 2.459942 0.194979 -0.626819 3.000376 0.325844 3.001297 2.669486 -0.261673 -1.196075 0.442172 0.287658 -2.761409 -1.173737 2.605249 0.409713 -5.011745 0.029059 0.398784 0.307574 -0.569279 -0.002603 -1.736969 1.278353 0.265089 0.857402 0.149696 1.393044 0.475394 -2.339007 1.469664 -0.700934 1.172428 3.352406 -0.513467 -1.09233 1.922384 0.18345 -6.045775 -2.128276 -1.349709 0.035176 0.262427 -3.859329 -2.093841 4.1123 -0.058558 -0.330286 -0.032677 0.143343 1.886319 2.003866 0.67393 -1.543548 -2.810378 -1.480285 -0.043723 0.723749 0.539855 0.255297 -1.536113 1.019123 -0.079192 -1.095842 1.635062 -0.540341 -0.586067 1.489053 -1.184883 -3.514333 1.13722 1.073201 -1.73535 -1.148636 4.104083 2.659155 2.332275 -1.754645 -3.55334 0.656041 -0.153266 -1.982576 -0.250838 -1.067303 -1.213111 -2.404984 -0.996816 -2.334042 2.375611 -3.025666 -0.505388 -1.976545 0.434199 0.074099 -1.51365 2.801213 0.824911 0.492839 1.13531 0.224997 1.853161 -2.033941 -0.044031 -0.784303 0.132027 -0.370599 0.878823 0.062051 2.122454 -1.28218 -3.042478 -1.317313 1.455188 0.483317 -0.678158 2.82089 -1.864275 -3.853324 -0.417861 1.771276 -0.709878 0.89452 1.658745 0.741646 0.428785 -1.202094 -2.757455 -2.198745 -0.450717 0.237089 0.15568 2.301642 -4.610962 0.007974 2.541707 2.946236 0.715013 -1.752667 1.137156 -0.022188 -0.712589 0.658222 1.115841 1.83401 2.144923 -0.492229 1.395192 0.036267 -1.464406 0.373652 -0.469312 1.235516 0.947062 -2.903502 -2.523829 0.829907 0.482558 -2.295862 -1.841851 -1.929141 1.151009 -0.64801
bank_bank_(geography) -2.514376 -0.733037 0.415255 -0.75204 0.638633 1.184497 1.672563 6.447717 1.564349 -0.243456 3.45606 1.334731 0.343834 1.15124 -4.972662 2.497571 -0.424228 1.38169 4.480264 1.446954 1.358981 0.409416 2.224272 5.497055 0.265698 3.504637 0.503957 2.368362 1.902642 -1.198601 5.742882 1.272041 1.275916 -0.261089 -3.601894 0.426932 -0.993029 -1.343817 0.016331 1.297735 -2.133763 -1.145095 -1.82239 2.517909 0.228131 0.02045 1.532011 -2.258735 -1.000444 1.819518 -1.586834 3.534907 -1.596678 -3.113067 0.225644 0.556196 -0.76579 -3.651013 -1.965792 -0.203465 2.304753 -1.199858 1.457619 1.461964 -0.229558 -0.816442 -1.117261 -1.163216 -0.973744 0.745236 2.168289 5.143357 -0.484127 -0.367038 0.048118 0.292957 0.413417 1.276641 -0.530379 0.128649 -0.791622 -3.490196 0.297196 1.471828 0.950639 -1.602924 0.760356 0.807876 -1.802797 0.166044 -4.367502 -0.155858 -1.124476 -1.615561 -0.097697 -1.088675 -2.888997 -1.800455 3.102892 1.83948 0.22817 -4.240509 1.470018 0.147171 -3.683296 -1.160383 -2.089531 -2.459926 -0.50944 -0.542954 -0.189741 1.31119 -1.960524 -1.676411 -0.760077 1.437452 0.882638 -1.521302 -2.19435 -0.015778 2.485835 -0.815394 -0.648563 0.683606 0.698917 -1.509208 0.844785 0.844394 1.046806 1.319657 0.758716 0.889198 2.153002 -1.609332 0.704918 0.897295 1.073304 -3.439677 0.587448 0.780704 -2.855253 0.093983 -0.561411 1.523222 3.238127 1.729928 -0.186084 -4.986529 -3.527985 1.347582 1.209295 -1.715274 -0.725053 -0.281172 2.012778 -0.434839 2.329365 0.683034 -1.683745 1.017618 1.455155 -1.475636 2.122102 0.509934 -0.195845 -4.035644 2.793579 0.617909 -1.628786 2.654505 -2.78125 -2.695384 0.256461 0.338571 4.236496 -1.595063 -1.24214 -0.796967 -1.195406 0.567471 -0.935928 1.468233 2.389949 3.351045 -0.380349 -0.132748 3.598637 -1.063089 5.014159 0.213975 -0.078802 -4.419376 -2.717018 1.187829 -0.565674 -3.817314 0.265722 -1.03148 -0.333899 -0.666372 -1.513653 -2.002994 -0.310942 1.522189 1.377185 2.094744 0.562752 -0.893655 0.358913 -0.807296 0.692619 0.636434 -0.695732 0.824872 -0.900238 0.405221 0.147251 -4.554022 0.498624 -0.856388 0.444956 0.839824 0.736646 -0.446 0.734203 1.505945 -1.012124 -1.083126 -0.980086 0.163052 0.167517 4.86799 5.580124 -1.806443 -0.980642 -0.549092 -3.099453 3.464517 0.425716 1.454562 -0.842043 1.122058 0.330508 -0.398995 0.350447 -0.816996 1.538166 0.020373 -2.69997 1.131467 -0.961902 4.228768 -3.358186 -0.885194 2.083482 1.026362 -1.635383 0.088131 -1.356856 -0.459175 1.920068 -1.4689 -1.192793 0.825784 0.067629 -0.269553 1.208731 -0.393694 2.504809 1.284293 -1.3834 2.02365 -2.56111 2.108852 1.091438 0.780263 -0.447585 -0.894773 -1.030412 -3.921662 2.631047 4.636503 -0.849534 0.86934 -0.880939 -2.265249 -1.520391 6.089247 0.825309 -0.038385 -0.113665 1.509479 -3.899983 2.133799 2.158874 0.477955 -0.145258 0.29576 6.030103 -1.372221 1.974987 0.838911 3.317941 0.546188 4.229269 -0.025452 1.538558 2.234445 -20.905399 -0.356318 1.954112 0.096466 3.730464 -2.60125 0.940658 -2.169359 -2.88539 -1.48969 -1.694776 -0.048169 0.548158 1.000142 -1.184768 -4.60558 2.963064 2.481963 0.853677 -2.188406 -4.349679 -0.46547 -0.464749 0.840165 0.214223 0.003779 -4.602703 -0.236937 -1.134042 -0.968507 -2.194801 -1.287137 -0.130348 -3.84866 0.487023 -4.006757 -0.07095 1.563533 2.358728 -1.472243 -1.452711 -1.035164 -1.186602 0.045442 2.363268 -1.392447 0.713392 -0.340381 1.940174 0.181558 2.616987 -2.122492 2.116025 -0.206841 -0.804326 -1.183898 0.492487 1.999398 2.934352 -0.675755 -1.582836 -1.456852 -1.913984 2.132218 -1.39086 0.22767 -3.700884 -4.663019 -1.933723 -1.404805 0.204994 2.014239 -0.949873 -7.766221 -3.385729 -2.921423 1.968786 0.435918 0.078804 0.084076 -1.763071 0.771271 -1.209625 -0.68479 0.186162 -1.831182 1.942591 -1.639034 -2.766985 -1.364321 -1.710613 -1.250196 0.876186 -2.192076 -2.078335 0.882488 -1.644895 -1.097524 0.771909 -0.028506 3.497383 1.20927 -1.913131 -0.353465 -2.898175 -0.399751 -0.737558 0.098981 -3.620277 2.304387 2.711829 -3.141287 0.157414 -2.143838 0.432719 3.328051 0.194576 -1.62812 0.198263 -2.563457 -3.470309 2.158992 -1.561826 -0.247383 2.495652 3.516338 0.7289 0.948511 -0.315906 -1.383915 4.064583 0.013636 0.211691 0.893183 1.922879 -0.697358 -1.101493 0.620792 -1.240356 1.027715 2.177511 -1.732768 -0.059757 -0.142372 -1.333027 0.309065 -3.345188 2.594819 -1.818625 -0.539248 -1.081735 -0.014179 -1.940092 -0.421007 1.29764 2.166496 3.193477 -2.033756 -0.616782 -2.026523 3.147818 -1.341757 4.126389 1.755767 -3.611377 -0.266658 -1.302266 -1.470858 -0.568832 -3.305402 -2.509035 -1.927976 0.960818 2.7951 -1.528128 3.262272 -2.542599 0.620644 2.944567 1.232012 -0.457267 1.132908 0.588637 2.171516 -1.477992 0.229654 -1.255985 0.924543 -1.157104 -0.054168 -0.32436 0.045183 0.881236 -1.481022 0.841261 -3.331726 0.3924 0.624247 -2.681168 3.257008 -1.756538 0.867247 -1.588747 -1.30985 0.882127 -2.271668 0.942601 0.704974 -2.222888 0.742056 -1.682538 -2.755056 -3.638762 -0.762424 0.984494 0.878138 -0.21564 0.108212 -1.353872 0.977445 -1.489027 -0.558769 -0.721892 0.270556 -1.632356 2.169616 0.693486 0.871105 -0.707806 0.760043 0.181389 -4.909751 -0.9967 -0.983246 0.225166 -0.178191 -0.085325 -2.620507 3.933229 -3.244425 -0.430602 1.338663 0.93314 -2.434653 0.451308 1.48055 -2.447433 0.964093 -2.384103 -0.83599 1.524635 -1.622384 -2.850817 1.006879 -0.903251 1.24079 1.284874 -0.190344 0.721306 1.254634 1.447107 -4.855812 -3.490502 0.835739 1.341856 -1.51486 -1.342908 0.061001 0.927892 -1.573763 3.484843 -3.544675 -1.757489 -0.718538 0.544451 2.120959 -3.292213 0.055107 5.061001 -2.665226 -1.244598 -1.248109 3.279928 -1.470949 -2.522243 -0.041655 0.891116 0.43422 0.315656 -2.229686 2.610466 2.429652 0.066546 1.63858 -5.061374 2.997259 3.526263 2.463238 -0.069536 1.799625 -1.411292 -0.607654 2.768195 -0.933411 0.400171 2.508453 -1.319194 -1.393978 2.05405 -2.309055 2.438958 2.309124 0.063441 1.951417 -0.058176 -0.604023 0.616035 2.115742 -0.433761 -0.503744 0.073108 1.3874 1.090199 -0.418382 1.868273 1.881342 -2.139308 -2.432447 2.64994 0.996616 1.599351 1.519216 -3.305026 -0.612256 0.566585 -0.49694 -3.965752 -1.664009 1.534871 -5.315884 -0.44684 0.431056 1.010658 0.015648 1.70984 -1.404753 -2.257167 0.012255 0.983458 1.996462 0.81892 -2.003452 -0.553971 -4.349036 0.086568 3.564938 0.296517 0.012174 0.636548 2.880656 1.645796 -0.705475 -0.072574 -2.58734 -1.668085 0.794725 -1.597524 -4.455791 -2.511978 1.586896 2.205345 -2.102273 4.540012 -0.298383 1.588196 -2.703318 -3.897258 0.792203 -0.569413 -2.104085 0.796959 -0.161304 -1.101856 -0.860516 -1.063923 -2.214469 0.622062 -2.136601 -1.655587 -0.853739 -1.370629 1.876713 -1.109997 0.67007 0.517494 2.438245 0.777526 2.860713 2.898499 1.123829 0.891851 1.967309 -0.582367 2.778251 -1.459955 -2.464766 -0.780606 -1.611964 0.498593 1.294649 3.522405 0.179173 -0.356143 3.233906 -4.656402 -3.231211 0.115026 -1.298436 -1.259589 -2.777126 1.548255 -1.573124 -3.488811 1.3682 -3.268196 -2.919253 -0.638605 -1.237913 -3.389704 -0.663615 -0.740012 -0.003869 2.82023 1.701942 -0.287684 2.359195 -0.673089 0.614826 1.567393 -1.591727 -0.72577 2.885655 0.786859 1.11015 -1.01486 3.090758 -1.768413 -0.766702 -0.1782 2.670504 3.507057 -0.879699 -0.5863 1.649202 -1.932157 -2.445166 -1.663936 -1.845273 -2.559631 -0.726996
bass_bass_guitar 4.322334 1.007728 -1.465441 -0.734487 -2.317398 -1.459564 -1.478905 -0.313433 -2.71247 3.038372 2.235847 -0.4128 -2.04619 -2.775601 -4.237525 2.459933 0.526582 0.709054 -4.936645 0.554513 4.937177 2.135238 1.960581 -0.091107 0.475279 2.748865 -0.99908 3.715864 -0.925853 -3.383386 -2.157443 5.292481 0.154033 1.667286 3.41891 -1.329372 1.417146 3.525301 2.35288 3.010585 -1.76483 1.285 1.128983 0.01794 -1.50877 -0.56251 -0.322734 -6.978344 -1.773581 -3.767097 -1.702554 3.474816 2.804936 -2.190164 1.097045 -0.995863 -2.17014 1.4393 -1.939456 0.740561 -1.046418 0.440715 -0.521693 -2.180605 1.485723 -0.601644 -1.777888 -0.289916 -1.655624 0.585204 2.291985 1.392014 -2.918323 0.675157 3.249268 0.40554 -0.901187 0.463365 -0.628271 -0.678815 1.680097 2.47429 1.918863 -1.161215 1.522542 0.618073 1.568864 -0.507467 -4.035674 1.128939 -1.654185 -1.875726 -1.078548 -0.218085 -0.555457 1.479625 0.742177 -0.5351 0.710184 -2.531944 0.598892 1.168715 -2.251208 1.284979 0.533239 -1.575375 1.735947 0.314219 1.848613 1.774458 1.64618 1.192168 -0.083887 -4.173938 2.051013 2.470245 -0.805979 -4.08847 -4.758904 0.597817 -0.033817 -1.203967 -1.638005 2.925254 -1.766077 -5.10851 0.160111 0.524491 -5.187557 0.880824 1.52147 -1.231348 0.074454 -1.27272 -0.567307 -7.942041 3.622649 3.041016 1.776195 1.131148 -2.936125 -0.357572 -0.073276 -0.91476 3.164777 0.630501 -0.937651 -2.336025 -0.326701 -0.104439 0.542247 -0.418902 -2.670142 -3.861621 -0.682704 -2.088736 0.892015 -3.416945 -0.276461 -0.887271 1.483122 -2.545934 -0.636428 -5.370565 2.700501 0.763884 0.645997 1.445882 -1.654959 -0.042217 -3.144451 -0.538946 -2.805078 -0.985882 0.821578 0.968358 -1.635249 0.838645 1.287706 3.438704 -0.00105 0.264291 -0.756785 -0.541474 4.548783 2.698146 -2.410505 -1.779304 1.056324 -1.638727 -1.433774 -4.408573 -4.230844 0.578443 3.514666 -2.997413 0.391831 -2.49087 0.405697 -2.326624 -0.728838 0.576859 -3.672348 -2.02599 -1.739536 -1.345688 4.615305 -0.695606 -1.362221 -0.89485 -0.237458 0.24382 3.762227 2.566478 -3.992451 -1.661123 0.107932 -3.143625 0.711197 1.406992 -0.738553 0.515524 -3.385094 -0.051152 -3.311041 4.518881 -1.78354 0.226348 -2.19911 -1.373816 0.475589 7.090303 -0.998679 -2.089294 -3.733241 1.137704 -0.740889 1.037861 1.834899 0.401047 -1.281453 0.260266 -0.266046 0.29923 0.362443 -2.499226 -0.153231 -2.657803 -3.878598 2.695318 3.465107 3.726992 -2.377448 0.587119 -0.930672 3.660393 0.459836 -1.337472 -1.745 0.664226 0.186616 -0.533543 0.641345 -4.298559 -2.788577 0.881077 1.94632 1.657788 2.864724 1.172224 -0.590986 1.864814 -1.635773 2.01563 -1.365676 -2.925543 0.743069 -0.927451 0.795475 -4.218431 -1.528698 1.65927 -2.189253 -1.809863 -0.162599 2.835494 1.274038 2.328618 -1.333213 -1.190431 -0.129697 -0.222271 -3.341625 -0.477386 1.885046 0.13318 1.327807 -1.428214 5.723523 0.870086 -1.112682 -3.190813 0.990766 -0.200733 8.227012 0.147706 -1.624771 0.622576 -8.339469 1.814783 -0.145547 1.463884 4.95494 0.701601 0.704016 -0.676022 -1.214735 -1.525417 -2.355673 0.179112 3.424527 0.40939 1.414361 -2.029885 -2.363206 -0.057531 -0.149135 -0.571995 -1.503545 -0.535343 3.880471 -0.63844 3.663363 8.615108 -7.656499 0.730747 -1.699607 1.156186 1.816137 -0.255645 -2.023649 0.472951 -0.552442 0.604854 -3.061091 -0.173835 2.933066 -2.501641 1.482195 -1.113344 -0.402904 -3.021493 3.965275 -1.734608 1.923437 -1.299717 -2.751719 2.188423 -2.671265 -1.553559 0.245432 -1.628226 3.529796 0.047905 2.23823 3.270341 -2.043785 -3.385341 1.124171 -2.316294 -7.108312 -1.299796 -4.465309 0.198544 -3.252506 -3.164352 2.697846 2.259964 1.548064 1.804542 -3.630346 -6.112474 1.773455 -3.90188 0.380312 2.301954 1.184553 2.528346 1.889259 2.628204 -0.256567 -0.954792 0.092999 4.926557 -0.231814 -0.699193 -2.422493 -0.925743 -0.740481 0.106135 0.835321 -1.57315 -2.236262 -0.244756 0.087072 0.668511 -5.131281 0.400587 -0.322085 -1.069247 -0.059404 -4.135956 -3.520283 -5.703385 -2.479196 1.298676 1.231069 1.105128 3.788704 0.131581 -0.183637 -0.240345 2.190691 -1.605369 2.433596 2.028975 0.529766 -1.645164 -3.640024 1.823364 -0.443476 1.037113 2.240173 1.1812 -3.012872 6.663391 0.001091 1.228291 1.034646 1.439475 -0.330537 -0.843276 0.615507 -1.468314 -1.35093 -3.243001 -4.47383 1.199984 -1.206607 -0.479787 -0.843077 0.667671 7.226745 1.684524 4.736063 1.887705 -0.936348 -0.742996 -4.318653 -1.575282 2.011281 -0.83897 4.47507 -2.895914 -1.248807 -1.574632 -0.777461 -4.314353 1.486153 -1.148933 1.620225 -1.783207 1.180293 5.829024 0.008912 -3.404891 1.903532 -3.277295 -1.282678 -2.980206 4.189989 2.813668 -0.733661 -2.053901 -1.220446 -0.735903 2.654189 1.351759 -1.220269 1.198116 2.496283 -1.056316 0.167112 -0.502271 2.330041 -2.241599 -0.873919 1.036053 -6.675898 0.752185 2.525504 -4.987541 -0.515016 -1.142016 2.311821 3.585483 -1.151155 -2.126121 5.377538 -4.097075 0.120658 0.508905 1.079806 -0.364277 3.041561 1.885417 -2.111758 -0.097641 1.531661 -0.583545 -0.962467 0.530861 -2.058953 -0.82165 -2.535721 -2.307166 0.570207 -0.490196 -2.843535 0.561916 1.166747 -0.947928 -2.059309 -2.494511 2.149443 1.88022 0.509259 0.39884 -1.174564 -11.243979 0.908022 -1.011052 -0.219755 -1.70251 -4.307539 -2.058045 -1.62165 -2.187203 2.621653 2.086869 0.878407 1.642123 0.220786 0.03405 5.26816 1.724417 -4.003242 2.575057 -1.987754 -5.551554 -0.400431 -0.364129 -1.45576 -3.871524 -1.929627 -0.109762 0.207688 1.090018 -0.662239 -0.104932 0.465426 0.462879 -1.126395 -1.026013 1.950528 1.528899 1.287232 -0.500652 -0.01392 -0.411252 -0.156455 2.047186 -2.220761 -0.28136 0.073492 1.713082 1.99577 -3.727394 1.232065 2.710738 5.277882 -0.622059 1.46444 -3.114149 0.462815 -0.76006 0.849138 2.611703 0.950315 -3.678981 -1.599119 1.040013 -0.345103 -0.577161 1.394631 -0.316198 -0.253605 -0.269951 0.251211 0.003239 0.630245 -0.318492 0.305214 -0.4837 -0.865743 -2.464351 0.860703 1.069828 -2.734025 -0.385027 0.338539 0.851225 -1.413149 1.582958 1.170156 0.519745 0.346384 -2.108483 -2.161946 2.036041 0.45946 1.177856 3.008732 4.68577 -0.877318 -1.286614 0.223311 1.79096 -2.407218 1.685751 0.554001 -1.600905 -2.181074 -1.104798 -0.736013 3.831981 0.183743 4.345407 -3.349821 3.211753 -0.567866 5.382071 1.977204 1.44117 1.207762 1.365192 3.876645 -4.11235 -0.785628 -1.1767 -0.566706 2.588439 -2.820569 1.440666 2.357259 -1.458961 6.542784 2.459794 0.752726 0.367452 1.186094 -1.15394 2.422749 -1.768243 3.189095 0.066381 -1.139455 -0.011945 0.937501 -1.768083 1.893543 -0.205418 1.639652 -3.032024 -1.462574 5.096027 1.276364 3.12637 0.555341 -2.043013 -1.44187 -1.622127 0.952184 1.87106 -3.350034 -1.51693 0.151272 0.330572 0.440258 -0.28144 0.529141 -3.853347 -0.622756 -4.742342 1.521036 0.966905 -0.613656 0.243086 -0.711759 2.866473 -0.253661 1.350782 0.690545 -1.898203 -1.164402 0.809128 -1.103835 0.61629 2.738916 2.348769 -0.253194 1.153433 5.731894 -2.411731 4.019476 -2.724208 -4.267162 1.676266 -2.57151 0.737844 -0.1432 3.464445 -1.390124 1.090855 2.61543 1.046479 -0.335413 0.413042 -0.616819 0.445985 0.673312 2.800134 0.078782 -2.06732 -0.849829 -1.322341 -1.823029 -0.154782 5.48833 3.329904 -3.220197 -0.36896 -1.981488 1.608616 -6.25295 1.242457 -2.150043 -2.471976 2.726112 0.861947 -0.66877 -3.614433 0.144252 -3.028669 -1.912206 -0.585194 0.738445 -5.626864
bass_double_bass 3.13682 0.7726 -0.879785 -0.695892 -1.865997 -1.695373 -1.565632 -0.134269 -3.192073 3.024905 1.850502 0.488389 -2.318539 -1.955232 -3.467085 3.047359 1.575576 0.169528 -5.643778 0.327711 5.344788 0.505892 1.805058 0.33101 0.396101 2.627673 -1.215144 4.228455 -0.984777 -3.195836 -2.440776 4.752466 0.447412 1.91364 1.704753 -1.725419 1.213287 2.413146 1.987247 2.812428 -1.587239 1.175882 1.052499 0.677141 -1.105493 -0.134012 -1.101325 -7.64535 -0.895007 -2.800102 -2.332733 3.93329 2.723263 -1.556211 0.518956 -1.029365 -1.28692 1.549404 -0.84262 0.243841 -1.64629 0.336125 -0.257103 -2.424184 1.811138 -0.409416 -1.767119 -0.613155 -1.358412 0.738515 3.519809 1.116526 -2.383233 0.851482 2.3639 -0.094699 -0.278064 0.040652 -0.324462 -0.352609 1.900294 2.357766 2.975147 -1.388313 1.417172 0.296722 0.307227 -0.829112 -3.102597 1.204249 -2.429873 -1.721275 -0.722099 -0.274095 -1.021953 0.917542 1.226052 -1.193612 0.712541 -2.026889 1.394442 1.44554 -1.289736 1.177887 0.369532 -0.748291 1.654547 0.883164 0.846595 2.155847 1.497767 0.137548 -0.180434 -4.850792 2.173103 2.184959 -0.803885 -2.538398 -3.942982 0.784733 0.617402 -1.542321 -1.476996 2.595965 -1.74691 -5.122354 0.986672 0.644203 -4.379798 0.277281 1.523536 -0.786414 0.931679 -1.208186 -0.985893 -8.645965 3.77931 2.301062 0.34425 0.688014 -3.413952 -0.218077 -0.011682 -2.001432 3.426372 0.448589 -1.772056 -2.447354 0.311489 0.296212 0.715484 0.185336 -1.707392 -3.994521 -0.922649 -2.528594 1.158706 -3.831904 0.039729 -1.076272 1.792469 -2.573521 -0.231971 -5.818389 2.232852 0.601513 0.474145 1.856208 -1.738689 0.998463 -2.741123 -0.216813 -2.414494 -1.498627 0.529792 0.659319 -1.478843 0.830153 2.010729 3.509682 -0.156356 0.524723 -0.836283 -1.715062 4.419632 2.936071 -1.694669 -1.509553 1.177403 -1.406182 -0.687865 -4.584844 -3.740772 0.641518 3.452824 -1.621604 1.016736 -2.510657 0.674753 -2.363755 -0.148187 0.936661 -3.672169 -0.878937 -1.666018 -1.397649 3.853374 -0.408218 -1.059159 -0.938091 -0.153327 0.094372 3.980648 2.151536 -4.183978 -1.401684 -0.278624 -3.131022 0.055443 0.624557 -0.118352 0.170232 -3.156547 -0.30083 -4.001227 4.587272 -1.632482 0.273351 -2.594517 -0.994946 0.368213 6.850909 -1.098822 -2.789758 -3.669398 1.462156 -0.851877 1.013009 2.213701 0.648438 -1.23149 0.289802 -0.716339 0.215331 0.331217 -2.6206 0.15585 -2.409119 -3.545789 2.27253 3.027535 4.231095 -1.44413 0.672934 -0.617659 3.121149 0.452944 -1.144902 -1.530334 0.535621 0.436059 0.272839 0.900906 -4.190057 -2.264674 0.295958 1.408745 1.350411 3.120754 0.773595 -1.045481 1.924947 -1.178842 2.580382 -1.459734 -2.06973 0.864669 -0.611656 0.665063 -3.305941 -1.615368 1.981815 -2.006819 -1.857235 -0.487543 3.047779 0.795312 2.179443 -0.168257 -0.539851 0.076736 0.603572 -2.296208 -0.329493 0.673169 0.522182 0.901747 -1.006778 4.888314 0.803742 -1.551976 -2.923839 1.674248 -0.42593 7.96739 0.537649 -1.681334 0.844026 -11.022548 1.126979 -0.07146 1.065391 4.30103 1.329585 0.543019 -1.273924 -0.120506 -1.465114 -2.921339 0.359695 3.478982 0.281771 1.735424 -1.476963 -1.952673 -0.012082 -0.11954 -0.202031 -1.032628 -1.081591 3.864885 -0.725449 3.608254 6.763333 -8.231245 0.571528 -1.375441 1.25357 1.56831 -0.602421 -1.789551 0.705965 -0.67029 0.493177 -2.879682 0.331344 2.62959 -1.017027 0.980831 -1.843696 -0.245344 -1.541746 2.961042 -1.343596 2.127632 -1.317988 -3.179262 1.804574 -2.305491 -0.973406 0.45784 -2.476376 3.040473 -0.327799 1.581326 4.060538 -0.920361 -2.430334 2.333868 -1.512218 -6.761952 -0.431942 -4.115827 0.597807 -3.982263 -3.488927 3.559173 2.552327 2.268402 1.898513 -2.94761 -7.043581 2.085076 -3.683014 0.948912 1.382768 0.574036 2.902286 2.749588 1.808482 -0.081449 -0.842349 0.774604 4.469368 -2.301317 0.303115 -2.489743 -0.981426 0.11808 0.090926 -0.088832 -1.59833 -2.270162 0.384721 -0.338992 0.293431 -4.658476 0.17241 -0.940492 -1.127526 0.190664 -4.304328 -3.282795 -4.583479 -3.021738 1.121983 1.679514 1.542835 3.53521 -0.173804 -0.553221 -0.473151 2.580913 -2.298416 3.036742 1.573121 0.14996 -1.075827 -2.165129 1.267743 -0.319035 0.594875 1.19877 0.995442 -3.300332 5.483448 -1.247004 0.893607 1.045384 0.897486 0.179574 -1.142244 0.798852 -1.211488 -2.028266 -2.093437 -4.159568 0.718464 -1.006117 -0.961825 -1.082942 0.39849 7.387088 1.550194 3.818142 1.329242 -1.39417 -0.50482 -4.234707 -0.333345 1.890389 -0.828986 3.641117 -4.113276 -1.1208 -1.757202 -0.794714 -4.188107 1.679432 -0.854154 1.506132 -1.401813 0.856039 5.774266 0.439863 -2.94715 1.974261 -2.045801 -0.921768 -3.687313 4.895851 3.058029 -0.471467 -1.74755 -0.634731 -1.050673 1.281459 2.084588 -0.563794 -0.111232 2.011204 -1.316652 0.000788 -0.498324 2.284563 -2.793926 -0.214507 1.088248 -6.067937 -0.151222 2.538064 -4.411965 -0.865682 -0.651568 1.532665 2.979038 -1.49308 -1.79462 4.991943 -4.498046 0.368033 0.298175 1.159071 -0.962359 2.948299 1.761714 -1.523352 0.281745 1.779999 -1.027606 -0.236477 -0.4666 -2.554981 -0.286261 -2.774257 -2.495796 0.230543 -0.202758 -2.898214 0.668054 0.006756 -0.434976 -2.515243 -1.772137 1.384134 1.570768 -0.34781 0.278464 -1.214534 -11.919264 0.574628 -1.399065 -0.34597 -2.568807 -4.495814 -2.196535 -1.468323 -1.458586 2.964992 2.083737 0.94167 1.995718 0.360269 0.547066 5.334147 1.652331 -3.47013 2.786963 -1.912962 -5.598408 -0.413294 -0.706911 -1.172095 -2.773934 -1.967212 -0.160767 0.215411 1.701402 -0.271803 0.465909 0.196648 0.611648 -1.343413 -0.993312 2.223414 1.184295 1.199648 -0.061661 0.047541 -0.533251 -0.757549 1.368068 -2.21667 0.708689 0.4015 1.539509 2.064838 -3.437065 0.575665 2.577101 3.204339 -0.276568 1.926263 -2.471917 0.057368 -0.149343 -0.124867 2.119073 0.932631 -3.370672 -1.184307 1.847573 -0.356241 0.169627 1.269092 0.224995 -0.333964 -0.241438 0.488238 0.162993 0.017642 -0.771489 0.066261 -0.474036 -0.29023 -2.765387 0.042825 1.076171 -2.321663 -0.526667 0.304955 0.470164 -1.597928 0.722548 1.624776 1.247638 1.338076 -1.178335 -1.776898 2.70702 0.766879 1.051833 2.09984 4.247282 -1.104233 -1.786292 0.117399 1.339998 -2.318296 1.572682 0.033378 -2.139007 -1.972404 -1.268647 -0.437447 3.050182 1.229258 3.582858 -3.916418 2.147782 0.207542 4.912224 1.86864 1.164277 1.050004 1.153457 3.449627 -4.874862 -0.593531 -0.437141 -0.128511 1.832368 -2.193145 1.687942 1.804482 -1.129944 5.861257 3.401454 0.07902 0.611684 1.577716 -0.916578 2.023851 -0.987376 2.125907 0.350756 -2.068745 0.857705 0.57225 -1.610407 1.740275 0.690825 2.594532 -2.836839 -1.428424 4.584759 1.305981 3.605413 0.344492 -1.254578 -1.45996 -1.45814 0.602214 1.126451 -3.902056 -2.154473 -0.370909 0.140233 0.355097 -0.641001 -0.16088 -4.178807 0.741506 -4.859191 2.172224 0.41499 -0.646953 -0.22998 0.19563 2.977885 -0.174316 0.89973 0.931422 -1.775806 -0.52074 0.774103 -0.447322 0.222558 2.384193 2.014367 -0.366277 1.06129 5.697042 -1.901232 2.879294 -2.637745 -4.338368 1.24652 -1.750977 -0.142003 -0.840514 3.204575 -0.768983 1.858068 2.614534 0.54078 -0.559762 0.914219 -1.009745 0.532609 0.860454 1.310921 0.485854 -2.192732 -0.404093 -0.943755 -1.690108 -0.055978 4.754108 3.54175 -3.729648 -0.044868 -1.228857 1.168617 -5.732602 0.641368 -1.416426 -2.470719 2.253468 0.828822 -0.545256 -3.089588 -0.111992 -3.436072 -1.35937 -0.698212 0.808723 -5.163526
bass_bass_(voice_type) 0.931247 -0.408757 2.000597 -1.895515 -3.585788 -1.99844 -0.273029 -0.187517 -2.672711 1.719524 -0.712659 0.06393 -0.673425 -0.224732 -3.054969 3.683572 2.861995 -0.265902 -5.615792 -1.890724 3.197421 0.107823 0.383646 2.086669 0.425408 1.054664 -1.96215 4.394 -0.523897 -2.877126 -3.156023 3.939976 0.20661 4.180762 0.160036 -1.197255 1.431016 0.62228 0.438684 1.511758 -1.143744 -0.087646 -0.22831 0.550816 -0.070595 0.546409 -2.888068 -7.810196 0.667655 -2.193674 -2.171612 3.95487 2.391165 -0.696495 0.594523 -0.788923 -0.837744 0.822345 1.284642 -1.3103 -1.488996 0.046914 0.304675 -2.510301 2.099911 -0.450832 -1.779489 -1.343351 -2.371417 0.963401 2.942143 0.797259 -0.594397 0.075481 1.121461 0.105542 -0.137446 0.863911 1.295359 -1.920509 1.490155 2.670801 3.170016 -0.642938 1.031067 -0.028352 -0.275041 -0.925655 -1.979298 0.868247 -2.743173 -2.45749 -0.589428 0.52981 -0.499378 0.64262 1.50667 -0.448157 1.009727 -3.061428 1.312416 3.063188 0.278678 1.098193 -0.194735 -0.288786 -0.069016 3.129459 0.543546 2.756245 0.925864 -0.029144 -0.611843 -3.735876 1.404353 1.510668 -0.178077 -0.296635 -3.097636 0.130163 0.019281 -1.412139 -0.133858 1.618151 -1.003768 -3.305115 1.859766 0.723521 -2.166881 0.8372 4.176464 -0.894103 0.875569 -0.458278 -2.155419 -6.798273 2.418166 -0.80079 -0.292238 0.190143 -4.148613 -1.344532 -0.552639 -2.336926 4.573848 0.298147 -2.747388 -1.16307 1.674873 0.636839 -0.215945 -0.309441 -0.530923 -4.408338 -0.92017 -1.736909 1.218777 -2.941091 0.355248 -0.67262 2.515852 -2.783187 -0.809181 -4.210578 1.821813 0.001343 1.08417 1.591637 -1.017823 -0.263848 -3.780163 0.688289 -1.592455 -2.31446 -1.770428 0.486114 -0.228193 1.714228 1.711266 0.66618 -0.570937 2.226551 -1.444398 -1.681778 3.281261 2.814772 -1.447483 -1.422795 0.80003 0.140994 -1.009053 -4.461491 -3.318909 0.137362 2.283216 -0.192963 0.685188 -1.925551 -0.628669 -1.503549 1.774803 0.104096 -3.44255 0.686188 -0.737541 -1.512046 1.672022 -0.250347 -1.068262 -1.368457 -0.750634 0.33484 3.089913 2.628472 -3.846324 -1.379791 -0.522588 -2.630235 0.287304 -1.66073 -0.236588 -0.123041 -1.661485 -0.805865 -3.952529 4.61451 -1.738832 -1.451636 -2.023597 -0.612315 -0.318976 6.16493 -1.138 -3.943195 -3.153436 0.265353 -0.699755 0.334552 2.499993 0.34635 -0.672314 0.49043 0.621003 1.146533 -0.096283 -1.549411 0.162748 -1.111473 -3.184939 1.612006 1.328673 2.160004 -1.243399 0.248679 1.903848 2.263557 0.46332 0.892744 -2.119105 -0.851134 -0.139333 0.090953 0.862073 -4.326575 -0.740525 -0.540551 0.037429 1.017115 2.253097 -0.713184 -2.021417 0.718966 -1.773554 3.35672 -2.104812 -0.191002 1.473479 -0.312202 0.925357 -2.914921 -1.258929 1.606318 -1.742775 -0.535186 -2.198991 4.335806 0.850643 1.922159 0.566464 -0.197265 0.734643 0.546238 -0.138356 -0.671039 -0.733463 0.88177 -0.043529 -0.112558 3.847047 0.768131 -2.394591 -2.916521 1.266152 0.346146 6.176524 0.157184 -1.819001 1.45854 -11.152036 0.164627 1.177174 0.945294 3.299005 1.695608 1.36275 -1.022136 2.602643 -1.62551 -0.777928 -0.682951 2.499357 -0.62843 1.978548 -1.391891 -1.112916 0.502183 0.90582 0.13414 -0.029727 -1.849286 2.717554 -1.392929 3.696667 4.662225 -6.121171 -0.010045 -1.279987 0.874608 0.416107 -1.135314 -1.349727 4.273079 -0.348077 -0.602089 -1.881181 0.522664 1.896649 0.38592 0.078198 -3.268645 -1.62734 -1.599146 1.299738 -1.335225 0.989571 -1.046243 -2.331111 1.673352 -1.122338 -0.265276 -1.181563 -3.079967 3.936612 -0.722949 0.155014 4.544146 0.704577 -0.212527 2.281493 -0.906316 -5.472935 0.270733 -3.063046 2.911495 -3.6031 -2.491502 3.101584 1.982854 1.722142 1.03503 -2.006052 -7.471332 1.19768 -4.53875 1.946273 0.244427 -1.324927 2.502439 3.463552 -1.711489 0.290799 -0.298789 2.675757 3.907017 -2.154895 0.556895 -1.535428 -0.394307 0.186812 -0.033056 -1.248185 -0.528384 -2.34852 0.508066 -0.676288 0.259782 -4.288021 -0.05587 -2.171627 -2.073515 0.27822 -3.016785 -2.469769 -2.372763 -2.889046 0.473673 0.527232 2.581218 3.707661 -0.182197 -1.657598 -0.505632 1.822057 -1.847863 2.252772 2.115629 -0.469855 0.232098 -0.732434 0.536847 -0.61252 -0.055587 -0.447722 -0.178632 -3.852268 6.862547 -2.503482 -0.470207 2.238594 0.564367 0.943301 -2.563977 0.582975 -0.936739 -1.228626 -1.891034 -5.346792 0.88913 0.090902 -1.197294 -2.527644 0.23551 7.293151 -0.616243 2.762905 -1.398882 -1.758149 0.312413 -2.918839 -0.020187 1.998962 -0.764224 2.35836 -4.346109 0.127359 -1.990208 -0.420284 -2.755611 1.935826 -0.801354 2.470596 -0.647992 0.366176 4.298258 -0.700681 -2.013823 1.154058 -2.727281 0.099362 -2.360123 4.849288 3.385282 -0.880092 -0.728907 1.262783 -1.100497 -0.029091 2.656649 0.504634 -0.558192 1.055284 -1.397544 0.252485 0.616507 3.576858 -1.472768 0.455467 1.780968 -7.100425 -0.048487 1.792275 -3.055907 -2.020302 -0.297086 0.44003 2.457279 -0.721555 0.247767 3.091782 -2.196131 -0.14829 0.39102 0.192075 -1.314811 3.195172 2.331945 -1.182738 1.094984 2.436736 -1.040647 0.542988 -1.231485 -2.628096 -0.399408 -2.353881 -1.522801 -0.189421 0.279772 -2.76121 -0.239974 -1.524689 1.174577 -1.633212 -1.137934 2.088594 0.409965 -2.668722 -0.628039 0.135012 -11.047392 0.473307 -1.962742 0.557672 -1.515397 -3.488159 -2.648871 -2.4787 0.439188 2.328474 0.480434 -0.375968 2.315826 0.286798 2.582234 5.457976 2.543638 -2.131994 2.014687 -1.249085 -4.915921 -0.810851 -1.728839 -0.543251 -2.841549 -0.45259 -0.335518 -0.528623 2.865105 -0.142623 0.721431 0.208192 -0.38588 -0.551032 -0.454564 2.927929 1.50802 -1.239322 0.615646 -0.531264 -0.238325 -1.652643 -0.692322 -2.116842 1.744175 1.200084 0.986106 2.614738 -2.383029 -0.668498 2.130427 -0.810305 -0.795713 0.270756 -1.109069 -0.947516 1.38342 -0.648612 1.163958 -0.121723 -3.032282 -1.413371 1.00618 0.136752 1.209964 -0.048679 0.927281 -0.754632 -0.442906 -0.457308 1.171664 0.15231 -1.105272 -0.217533 0.506832 0.827001 -2.485543 0.797945 1.43551 -2.41793 -0.829007 0.655616 0.521534 -0.199278 -1.166849 0.921453 3.000886 1.91995 -0.783668 -0.673802 3.746066 1.732289 1.791228 0.726967 3.868168 -1.285258 -2.356582 0.004324 1.083903 -1.018765 1.326339 -1.28971 -0.993132 -1.587957 -0.793368 1.14271 1.968923 1.564499 2.310296 -2.710388 0.556853 0.589911 4.605457 0.925803 1.969314 0.699816 -0.064457 3.529661 -4.759402 0.092262 0.523565 1.28196 1.089726 -2.856399 1.288683 2.320692 -0.774586 0.778511 3.636938 -0.95492 0.1773 2.339361 -1.535525 -0.384361 -0.615453 0.941417 1.337155 -3.13028 -0.032508 0.737025 -2.079807 1.167682 1.04627 3.127592 -2.457881 -0.283073 2.942902 0.626142 3.349897 -1.207738 0.115425 0.517297 -0.656694 -0.161483 0.873208 -2.978133 -2.348493 0.590266 1.471742 -0.681853 -0.446762 2.745753 -3.670375 0.243319 -4.365094 2.586123 0.818002 -0.462166 -1.332198 2.137676 4.45715 -0.043707 1.383309 0.968983 -1.543394 0.328903 0.460491 0.26728 -1.461668 4.724596 1.217652 -0.520287 0.789491 3.187006 -0.780433 1.083308 -0.583504 -4.051789 0.352178 -0.094754 -0.883122 -1.435618 0.317553 -0.143674 3.683643 1.545278 -1.475616 -0.685097 1.637794 -2.003709 1.132635 1.078805 0.402294 0.340724 -0.922956 0.020286 0.423167 -1.225133 -1.534995 2.919895 2.378402 -4.979187 -0.787947 -0.237467 0.41796 -4.953139 -0.769702 0.096345 -2.026496 1.874655 0.091802 1.902423 -1.790944 -1.198933 -3.286577 -1.072877 -0.496966 1.528452 -3.658267
bow_bow_and_arrow 6.615363 2.447526 0.204389 -2.412164 -0.124674 -0.961257 0.247967 0.642748 -0.391327 -1.093978 -1.527046 -1.757195 -0.435349 2.155798 -0.344869 0.286574 -1.254095 0.830347 -2.83821 1.02154 4.249242 -0.534211 -0.528388 2.633509 3.957777 3.448919 -0.68491 0.320965 -2.078924 0.662919 1.857479 2.135256 1.700684 -3.773937 -1.130141 -1.541944 -3.099885 -0.861123 1.809541 -0.509447 -0.823331 -1.742778 1.559116 2.204668 1.949516 1.134803 0.60115 -0.286398 2.992188 4.364613 -6.234337 0.928795 -2.612413 -1.210582 -1.253498 1.283036 -0.487794 -1.793732 -1.52888 -0.271166 -2.394846 1.013113 0.922081 3.970468 -2.530433 -0.012269 0.185942 5.046926 -3.119173 1.094614 -0.316667 0.645504 -1.31023 1.77734 2.362158 -0.952895 -1.181824 2.120061 -0.272369 1.622711 0.786961 0.990115 0.800785 -0.637983 0.442855 -0.356057 1.673702 -0.935918 0.894721 5.587603 -0.940615 -2.785319 0.976081 -0.607349 1.487574 -1.577467 -0.090011 0.881473 1.310525 1.212326 1.774746 0.300132 0.013604 0.244759 -2.01286 -0.183656 0.364579 -0.807248 0.420115 1.206928 1.947354 -0.526001 -1.439588 -4.057775 -1.887709 0.334144 -1.168617 2.228042 0.965454 -0.290015 1.532517 0.224543 -0.307807 1.436587 -0.208545 -2.147928 0.73856 -0.143404 -1.622464 -1.677279 1.313402 2.185378 1.070793 -2.433074 0.053644 -0.260249 -0.575474 -2.207261 -5.397037 0.269959 -4.889217 1.812848 1.612836 4.439999 3.062053 0.960254 -0.23564 -2.244796 0.90437 -1.00192 -0.631698 -0.63141 1.704824 -1.624213 -1.883945 -0.479793 -1.764049 -0.437159 -1.50285 0.334038 3.803017 -4.998977 -1.490712 3.494236 0.994129 3.476292 -0.152288 0.459454 -0.209918 1.368198 2.442012 2.596723 1.38648 0.611182 1.252383 1.256433 -1.578278 1.680307 -0.574842 0.957726 -1.233151 0.190736 2.314472 2.199642 -1.662593 2.603084 4.376346 -0.811726 -0.885523 -1.089891 0.179785 -2.246207 -1.994335 1.040987 5.133934 -0.727939 3.625366 0.842563 -0.953677 0.022139 -4.081514 -0.820753 -0.304907 -1.35231 -0.537129 0.191336 1.972698 0.912036 -3.191405 0.44486 -0.62908 -0.283809 0.097312 1.548075 -1.567483 0.809875 -0.176171 -1.904711 -0.124879 -1.135508 1.012139 -1.661888 -0.67401 0.982977 -0.459079 3.331465 -0.303873 -2.076293 -1.449672 -0.836994 1.459223 -1.107118 2.079212 2.702555 -4.324306 -1.604003 -0.888574 -0.433 -0.071487 -1.25932 -0.447475 2.620894 -2.475869 -0.846004 0.751692 -0.329078 1.103751 -0.514003 -0.849243 -0.932155 1.069898 0.991543 -0.55752 1.467144 2.787068 -0.154957 0.248535 -0.20225 0.219819 0.297296 2.658598 1.048738 2.676717 0.213139 -1.122654 -2.024635 0.436886 -1.910658 2.829427 -0.107632 -1.779749 -0.300385 0.663076 -0.502983 -0.558026 -2.009838 -0.508313 0.149117 -1.047042 -1.534685 1.354911 1.638269 -2.148558 0.558645 -1.283989 -0.363484 0.975057 1.73311 1.156326 1.305717 -0.400439 0.440892 1.540687 -2.415933 -0.113531 1.467873 -1.131388 0.015218 3.100823 -0.956087 1.005914 -0.753854 -3.006289 -3.234668 2.077499 2.127435 0.255561 -2.062505 -24.779379 -0.285798 0.246223 -0.292921 2.555185 0.027899 0.421318 -0.266063 -0.698802 -0.548613 -0.998733 0.310566 -0.274084 -0.193001 -0.030507 -2.515614 -1.54225 -1.102659 0.367965 -0.499901 0.033073 -0.711465 -0.555583 -0.07835 0.929568 -3.448224 -1.677066 -1.261097 -0.046655 0.356028 4.131732 1.516807 -0.982429 1.105035 -1.569144 0.645489 2.45896 -0.124539 2.922135 -2.829978 -0.336343 -4.703184 1.242779 2.10678 3.946302 -0.937008 0.48105 -1.112073 -0.189276 1.939246 0.280319 -2.998274 -2.807377 -2.684131 3.443812 -0.998698 3.584755 2.853884 -1.614148 -3.276317 -0.468776 -1.764991 -2.06698 -1.130044 -1.104353 -3.792895 -4.072557 -4.106078 -1.237722 -0.703763 -1.648246 -0.891135 2.393939 -8.999769 3.166032 -3.127668 2.247961 0.443475 -0.489883 -1.707536 -3.54258 -2.567852 0.977259 -2.443342 -0.385109 1.778408 0.517317 -1.312562 -0.380854 1.7426 -1.077781 -4.143451 0.464141 1.402866 -0.808724 0.027077 -0.084398 -3.386587 0.071822 -1.629905 2.222811 -0.949955 -0.735615 -2.050278 -4.376457 -0.561197 -1.695131 1.97561 3.600542 -3.044416 1.350544 -0.617897 1.860806 -0.57414 1.869016 -2.940995 1.340881 2.149271 0.417622 0.461829 -1.371701 2.020357 -1.897163 -2.909804 1.775997 0.605011 -1.141464 1.184804 -0.662767 -1.389235 0.586659 -2.487955 1.008468 1.922936 2.490157 0.990419 -0.205902 -0.912038 -1.685675 2.015373 0.527385 0.192518 0.020224 2.591703 1.976175 -1.388478 -0.423358 0.389738 -2.945721 1.899389 -4.471442 1.149678 -3.000252 -0.894489 0.628743 -0.426758 0.230274 2.009563 -0.946156 -4.018796 -0.728085 0.675575 0.827456 1.236155 0.332131 0.070824 0.59623 2.603563 2.90108 -0.982981 -0.430747 -2.097633 -3.003653 0.80933 -2.095742 -2.402163 0.706457 -1.123055 -2.950525 1.629875 1.151224 -1.313344 0.509888 0.146179 -0.706641 -4.189134 2.780667 -2.902013 1.264692 1.939971 -4.902971 -0.803743 0.972279 0.864226 -1.639843 -1.344793 -0.502123 -3.321461 -0.583552 3.174624 0.099663 -4.465307 1.069838 1.187418 -0.020403 0.668951 0.905333 0.898981 -2.570751 1.306574 0.984421 -1.465179 -0.195869 0.116068 1.955411 -1.599191 -1.568481 -1.211847 -0.406559 -1.953094 0.627746 0.437068 -1.446832 1.197981 -4.62866 2.301942 0.996139 -1.484721 1.082026 -0.348036 -0.488934 -0.529381 -2.690223 -1.046455 2.560142 -0.522728 -1.108816 -4.07148 -0.602108 -1.966927 1.982025 0.565828 -0.796536 0.812143 -2.015672 -1.047352 -3.633021 -0.81047 0.170775 -0.068832 -2.380184 0.506721 3.469082 -1.82859 1.616284 0.980102 1.13705 0.071582 -0.478078 0.151069 0.008036 -2.921971 -2.057625 0.248657 -1.981657 1.007541 -0.729358 -1.168396 0.324197 -1.047648 -1.7692 -3.879767 -1.051825 -0.667279 -2.902472 -0.477798 -2.84142 2.00764 2.507082 0.504674 0.047274 0.991555 3.440368 -2.327461 -2.976791 2.024108 2.630783 1.388127 1.786642 3.542906 -0.265441 2.610619 -0.527144 7.425698 -2.984014 2.296919 5.153703 1.819725 1.008501 3.897836 0.55722 -0.269514 1.201973 -0.039263 -2.392678 -0.891645 -0.534245 -2.969619 -0.010959 0.957068 -1.366467 0.558341 1.046095 -1.432351 4.321393 -1.938619 -1.016156 3.281093 3.19817 1.313495 -0.682394 0.152943 3.768414 -1.715278 -1.395475 3.931974 0.252295 -1.237726 -2.954771 1.758383 -0.355404 1.04017 2.724479 1.709628 0.170909 0.046178 -1.268863 0.635595 1.574603 1.073482 1.096146 -1.138957 -3.492348 -0.961872 0.915044 0.991083 0.630917 0.978982 2.732506 -0.785956 0.953746 -1.761375 2.013362 -5.292523 -0.848387 1.433413 1.406051 1.819001 2.191617 5.603158 1.19668 -2.314818 0.855857 -3.181359 -3.801376 -0.197579 -0.583209 0.416081 -1.601913 -1.171692 1.616359 -2.351323 -1.096385 2.074732 0.626915 -0.79759 -0.184188 2.12858 2.292064 -1.391282 0.222677 0.364116 -0.577238 1.72119 -0.527757 2.392471 -2.504546 0.434887 -1.929807 -0.445107 1.009801 1.474064 3.179162 0.43777 1.51631 -2.016416 3.850795 1.309528 0.434613 2.029428 -0.628421 0.991597 0.928685 -0.570324 -0.083294 0.943949 1.469274 -0.972214 0.270855 -4.200696 0.192829 0.379932 -1.064857 -0.56795 -4.092353 -1.339677 2.325753 -3.373952 0.401508 -0.647177 0.073936 -3.306175 0.526656 3.46367 0.696088 -6.446249 1.306037 -1.252937 -5.366127 -0.431863 -4.566427 0.164141 -0.493222 -3.54556 2.568759 -1.185784 -1.691341 -1.269427 2.040309 -0.33053 1.142344 1.12063 -0.439047 -0.057942 0.305069 0.485169 -2.004874 3.152777 0.553803 3.094652 -0.969925 0.454402 1.710875 -0.774752 2.08691 0.572136 -2.824531 -3.485898 -0.429858 -5.292957
bow_bow_(ship) 1.179496 -0.644994 -0.786212 0.358 -0.331818 0.640354 -2.164198 0.132669 1.355179 0.927861 4.232081 -0.510459 0.327552 0.17131 0.720902 -0.988633 3.644174 1.096115 -1.274282 2.770193 2.193127 0.366002 -1.002785 1.54164 3.961125 1.974719 -1.286807 1.482786 -0.495196 0.959075 4.092822 1.080312 -2.494112 0.158563 -2.306133 1.620625 -2.701383 -3.419478 0.252298 -0.213008 -3.373728 -2.965835 -0.2146 -1.882766 0.869857 1.671435 1.89526 1.99787 4.337224 4.301936 -5.558644 -2.752476 -0.226975 -1.952474 -1.841159 0.023803 -0.379228 -1.418926 -2.233457 0.576474 -0.859702 0.315764 3.618227 0.227028 1.671796 -1.646849 2.282711 1.111037 -5.42346 0.284992 -0.01895 0.555499 -0.616969 1.043455 2.511149 0.49324 -0.527301 1.31271 -0.42208 0.723796 -2.509673 0.922328 3.249691 2.026515 -0.974994 -1.462064 0.966885 1.759009 -1.346676 7.38262 -2.512425 -1.941851 -0.897468 3.099869 1.750584 1.772242 -1.603263 2.941624 2.173884 0.503234 -1.215013 2.50053 3.106911 2.728484 -2.101744 -0.471897 1.343831 -0.357681 -1.120842 -0.346733 0.816245 -0.083485 -0.64338 -3.427687 -3.209064 0.127956 -2.282667 0.422339 -0.189349 -1.878566 0.400114 -0.59111 -0.849508 0.63307 -1.061363 0.240586 -1.222846 2.229409 -1.719211 -1.136409 3.06161 2.286794 0.917918 -1.735895 -0.447901 1.72625 2.336414 -1.127248 -1.602277 -0.15776 -4.985813 0.844067 -2.566604 4.219585 2.350419 0.210928 1.352397 -1.814688 -2.432746 0.623058 -1.83627 -1.142566 0.915316 -2.483592 2.446018 -2.555083 0.672287 1.116786 0.060346 -0.66167 3.687167 -2.462702 -1.211969 2.677862 2.075201 3.779954 0.08746 1.094038 -0.271999 -2.183421 0.532658 2.2626 1.460007 2.930424 -0.398792 0.466627 -1.448364 1.474823 -0.598838 -1.499176 -1.330623 -2.687264 2.537169 2.382732 -0.254068 0.533711 2.980061 -2.726404 2.066897 -0.96817 1.135355 -0.920829 -1.931596 1.06932 1.981866 -1.621277 2.439692 0.098435 -1.245735 -0.397973 -0.876946 -0.123495 -1.167425 -1.494974 -1.696248 2.188699 4.240397 0.243552 -1.047441 1.57196 -2.066641 -3.183597 -1.521715 2.863107 -0.395945 -0.199534 0.345612 -6.407172 -2.104189 0.680092 2.509991 2.037151 -0.643217 -1.44714 -0.284042 3.57285 -0.353156 -0.64117 -1.137899 0.945626 2.196772 2.527372 0.73919 3.150132 -4.229682 2.073892 -1.738091 3.768008 4.00045 -0.187552 -0.805702 0.28874 -2.824993 -0.857762 1.174258 -1.791704 2.214062 -0.993691 -2.24793 -1.115757 0.005432 -0.870149 -0.375323 -2.336097 1.444117 -1.584609 0.777602 1.875119 -2.649096 -0.99274 2.54361 2.635488 -1.047787 2.629919 -3.631898 -1.331066 1.220886 -0.860196 2.407084 0.197447 -1.189462 0.893733 1.283658 -0.239585 0.106214 -0.815334 1.639626 -0.195675 0.531882 -1.309007 2.038626 2.877516 -3.896551 1.995992 -0.905333 -0.006893 2.56027 0.27192 1.935115 -1.04204 -0.02365 0.221245 0.470732 -3.481103 1.289706 2.19983 -2.726775 -1.244399 4.551373 -0.005498 0.036296 -0.23407 -0.820502 -0.110761 2.842206 -0.512605 -2.596297 0.114526 -22.518133 -1.744437 -0.476978 -0.41053 0.953828 0.25942 -0.733316 1.107276 -2.018559 -2.158871 -0.890101 0.75072 -2.245263 0.1806 0.680182 -1.270873 0.274193 -1.414286 -0.564113 -1.982786 -1.138588 -1.03284 1.457496 -0.065103 1.411601 -3.573659 -2.934637 2.505354 1.143828 -1.086116 2.133519 -0.973198 -1.165427 -1.695393 -1.058208 -0.753668 -1.353149 2.16117 3.105426 -1.594578 -2.916877 -1.554824 -0.016625 1.194748 2.962167 -1.691789 1.929817 -2.132287 1.417451 0.898766 0.138851 -1.808005 -2.583435 -0.878309 1.479183 -2.214364 1.014604 0.467005 -0.169065 -2.083114 -0.302345 0.717288 -2.736797 0.964995 -1.379814 -0.65514 -5.957484 -2.363224 -1.78851 -2.089624 -0.647313 2.967774 0.717745 -8.17283 0.673869 -0.983957 2.130926 -1.6822 -0.346251 -0.593932 -0.808461 -0.552693 1.589882 -2.119028 0.384536 -3.667129 1.213997 -1.27312 -1.871528 1.483819 -0.799081 -3.014871 2.577273 -1.379856 -2.275229 -0.886416 -0.720938 -0.899881 1.972495 -1.616031 -0.192234 -3.638504 -0.58127 1.092465 -4.579479 -0.000668 -2.216717 -0.86181 2.3691 -1.050385 -0.2587 -1.983662 -0.767276 0.454337 3.627283 -0.895746 1.015135 3.310183 0.982806 1.15635 -0.733218 2.070504 -2.566163 -1.933696 -1.598016 1.383186 0.329534 1.113372 -1.927809 -1.303337 -1.036161 -0.048252 2.873201 1.573768 2.16595 -1.343757 -1.728829 -3.142481 0.864752 2.791863 -0.672488 0.991331 -1.162477 -0.574629 1.888688 0.075799 0.098512 2.446193 -0.418802 0.501878 -2.547778 -0.049635 -3.734312 -0.365362 -1.343186 -1.405168 2.887171 -0.719148 -0.341645 0.511261 -0.601081 0.051923 4.137859 -1.444208 0.160932 1.077988 -2.785495 0.031575 2.471183 -1.135034 -4.48837 0.470303 -2.107099 0.137143 -2.167218 0.201326 -3.015483 -1.238971 2.103345 -2.665949 -3.009314 -0.065802 2.200356 3.159215 -1.347773 -0.724776 0.366781 0.496861 1.645924 0.092068 -6.279194 -1.125628 -1.577367 0.983517 -0.886526 -0.159972 -1.018783 -1.483869 -0.185199 3.770094 1.270247 -2.4248 0.311528 -1.930905 -1.759387 2.214776 0.028103 0.302276 0.644967 1.439295 -0.221493 -3.626565 -3.575678 1.842925 -0.792814 -0.442201 -3.1309 -0.601057 -0.769623 -1.600143 -2.052604 -0.510362 -0.974912 0.378452 -1.001229 4.031425 -1.692385 2.309763 -1.376965 0.443191 -1.351261 -1.846306 -1.964868 0.07121 2.347471 -2.509702 -0.712589 -2.403827 1.234303 -2.308096 0.907246 -0.120711 -0.537809 -0.969196 0.52815 0.353475 -0.823637 0.664473 0.184714 -2.560876 -1.654525 -1.306717 0.179513 -2.843351 2.351118 -1.544934 -2.797136 0.372109 -0.986748 1.316828 0.768326 -0.161592 -2.358859 0.209447 2.293509 2.341035 0.258827 0.111666 0.482462 1.537939 1.205522 -1.01415 0.592951 -2.447248 -1.921106 1.579528 -3.105375 1.972816 5.471499 3.099255 1.15006 2.871452 2.800617 -3.216109 -1.230172 -0.327938 2.377895 -0.535969 0.4 5.766535 3.051053 1.827287 -1.750802 3.648172 -6.279966 2.104743 5.070205 -2.098477 -1.585343 1.716493 -0.245146 -0.620092 0.007423 0.455018 2.124614 1.048739 -1.100338 -2.708895 1.108928 2.523347 -0.706407 -0.605097 -1.753043 0.215353 2.002222 0.166564 -0.483209 2.578926 1.209999 -0.725569 -1.690523 -0.765022 0.522809 0.555199 0.226355 1.509207 -2.611686 -0.55842 0.532417 5.13188 -0.664075 -2.088813 3.737242 0.233829 0.791963 1.28208 0.2858 -1.497524 -1.061249 -2.456222 2.27361 -1.138264 -0.462965 -3.585326 -0.158081 1.067451 -2.75488 -1.296477 1.52514 0.323113 1.366162 -1.605978 4.172215 -6.625174 0.708824 6.391389 1.68525 -0.712548 2.076709 2.624924 -0.583798 -0.360902 -1.23909 -2.020003 -0.840355 1.160866 3.046869 0.87532 0.382238 -0.814827 0.175352 -2.45128 0.126654 -0.076439 1.666494 -0.1211 -0.259814 -0.065536 0.012216 -0.915854 -0.920064 0.589245 -2.031588 0.94306 -2.271508 2.118284 -2.167847 -0.406293 -2.9641 2.148045 0.06523 0.800598 4.085478 -1.497692 1.310112 0.68276 3.290634 1.644034 1.774965 1.566178 -2.64517 2.263273 2.362042 3.858315 0.547744 0.073509 -2.475321 -1.213141 0.795587 -3.872737 0.416724 0.877139 -2.39272 -0.083796 -4.244318 -2.602171 -0.037092 -1.097724 -0.881701 3.292244 0.593213 -4.178141 -0.989979 0.389606 -1.342467 -3.47632 0.847146 -1.64889 -3.229704 -1.513257 -4.172773 1.186672 -1.164763 1.412354 1.08919 0.017049 -1.449793 -1.573596 5.872122 0.868459 1.12987 1.456462 -0.044331 -0.832179 1.06016 -0.270472 -2.733339 0.8053 2.260105 1.213389 2.35307 -0.776858 -1.434788 -0.828047 0.783755 -1.840237 -0.701546 -4.353247 1.786709 -4.400476
bow_bow_(music) 5.308229 1.528304 1.25798 -1.693706 0.23734 0.047536 -1.390968 1.036453 0.959054 -0.646486 0.599283 -0.265801 -0.657495 2.321584 0.309705 1.118946 -0.352541 -0.049473 -2.299319 -1.048049 4.34561 -1.203508 -0.755415 2.02206 3.051515 2.011741 -1.607451 0.129654 -1.186493 0.548382 0.337064 3.426582 2.263694 -3.94852 -4.002394 -2.236107 -2.547461 -1.310752 1.165134 -1.90284 -1.606058 -2.346711 2.921849 1.61355 2.672084 0.895214 0.791986 -0.20449 1.243297 5.079205 -6.960757 0.791884 -0.141499 -0.291846 -1.285982 -1.039111 -0.147616 -1.501294 0.106964 -1.666894 -3.764196 1.348485 0.693917 1.384565 -1.259369 -0.148057 0.246541 4.013443 -3.372714 1.456256 -0.310978 1.745701 -2.136769 0.355655 3.51079 0.058332 -0.861976 1.577172 0.919233 2.522674 0.269766 1.315096 2.119772 -1.049259 0.948788 -0.629705 -0.124598 -0.891496 1.334847 4.199465 -2.922825 -2.36505 1.841412 -0.031248 1.842282 -0.195231 1.013124 -0.60546 2.002402 0.865347 1.545524 3.105624 0.012165 0.80185 -1.762793 -0.608047 0.792058 -0.181586 -0.193422 0.476979 1.326651 -0.045939 -1.353253 -4.389532 -0.07738 -0.547231 -2.26589 1.588277 2.214794 0.193618 1.016529 0.350427 -0.575091 1.158554 -1.288657 -2.695378 1.51852 0.481083 0.218387 -1.223742 0.318833 2.396663 0.75423 -2.159482 -1.360561 -2.230699 0.808073 -1.879654 -4.734052 -0.614473 -3.662037 3.13577 0.313976 3.853438 2.570585 0.520821 -1.551046 -1.225886 0.558792 -0.430027 -0.603741 0.38912 0.934965 -1.789177 -1.435247 -1.533538 -1.796293 -1.349778 -0.447105 -0.205142 5.311632 -3.861215 -0.512528 2.971182 1.10598 4.905252 0.799893 1.129518 -0.063566 0.867555 1.449121 2.747849 0.371584 -0.942356 0.596157 0.138409 -1.318457 1.795724 1.091268 0.87941 -1.38598 1.165227 1.623397 2.438388 -1.887326 2.693536 4.775669 -0.505365 -1.202468 -1.284257 0.440091 -1.49361 -1.256981 0.728551 4.462541 1.34 3.477758 2.052913 -0.750473 0.185404 -3.590239 -0.84102 -1.109974 -1.478009 -0.554964 0.584682 2.541924 -0.306136 -2.373653 -0.355587 0.044888 -1.619744 1.373218 1.082383 -1.247798 0.009969 0.430386 -2.920509 0.249213 -1.220268 1.506827 -0.324021 0.071392 0.308264 -0.880547 3.430398 -1.461679 -0.805535 -2.331566 0.899946 0.730325 -0.189275 1.703867 2.078401 -4.031573 -0.317102 -1.592604 -0.16291 2.147806 -0.869988 0.120519 2.267253 -2.837653 -0.684837 1.106575 -1.147825 1.477657 -0.738015 -1.523494 -0.005649 0.502704 1.660449 -0.558156 2.888438 2.756214 1.162533 0.354706 0.084062 -0.486261 -0.160159 1.439171 0.123785 2.851997 -0.399106 -2.159601 -1.098744 1.804497 -1.044163 3.255949 -2.864129 -2.058294 1.020185 0.178544 0.502029 -0.85037 -1.09294 -0.726654 -0.8397 -1.734993 -2.944613 0.658181 1.171682 -2.401684 -0.400375 -1.483754 -0.289069 0.541006 1.633233 1.787253 0.737032 -1.459095 1.136247 1.898662 -2.877331 -0.196498 1.512004 -0.687532 -0.223526 2.999246 -1.225361 0.874456 -1.813043 -2.080379 -2.822933 0.628675 3.383705 -0.459096 -2.923485 -25.554005 -0.301163 1.124631 -0.312347 1.88375 1.107283 1.395239 -1.5038 -0.821604 -0.022102 -1.482742 1.336999 -0.582806 1.563699 0.143755 -1.587762 -2.357245 -0.820642 1.451333 -0.5882 -0.233863 -1.090422 0.160029 -1.288361 2.202592 -1.979278 -2.72723 0.62715 -1.486925 0.281077 2.038454 -0.370302 -1.381785 -0.037404 -0.901299 1.711508 0.863735 1.084934 3.91298 -2.017296 -0.075364 -3.627047 1.285275 1.953538 2.757002 -0.415085 0.614884 -1.063512 -1.032158 2.812369 0.810338 -2.947077 -2.557648 -3.889602 2.397224 -1.655813 3.48366 2.425046 -0.304228 -3.678869 0.138174 -1.760172 -2.144546 -0.683938 -1.450918 -2.41459 -5.87508 -3.454566 0.326246 0.340905 0.230449 -0.531936 1.59103 -9.55221 2.726958 -1.843101 1.598924 -1.012347 0.359068 -0.840575 -2.704118 -2.276654 1.24829 -2.571675 -0.773997 2.394462 0.62589 -2.092716 0.93117 1.176366 -0.463892 -3.915087 -0.114507 1.392024 -1.263044 -0.656376 0.394746 -1.499293 -0.738474 -2.337922 2.294509 -1.86387 -1.336888 -1.748511 -4.004094 -0.028833 -2.463249 2.205889 2.884848 -2.717 1.800296 -0.938451 0.607478 0.128286 1.66684 -3.587895 0.906573 1.884281 -1.034168 -0.492592 -0.656324 0.856552 -1.069088 -2.158981 1.816242 0.785059 -1.454662 3.381027 -1.743326 -1.132301 0.91337 -2.037026 1.51109 3.276839 2.733446 0.598459 -1.907263 -0.061886 1.194192 1.396916 1.639688 -0.725105 -1.318967 1.339321 1.561009 0.710994 -1.650512 0.068641 -2.768872 2.025759 -3.110038 0.760952 -3.092481 -0.443709 1.728087 -1.820281 -0.040256 0.650369 -1.0972 -3.58915 0.360129 1.131054 1.073432 0.424957 0.783681 0.311088 -0.512722 1.157194 1.731107 -1.1514 -0.806387 -0.869819 -0.652217 0.01687 -1.049705 -2.475267 0.683135 -0.793599 -3.762029 1.740909 -0.528409 -0.637528 -0.013781 0.167111 -1.739116 -4.244622 2.138648 -2.193514 1.636467 0.362368 -5.088829 -1.696613 0.057406 0.051909 -1.285075 -2.20913 -0.591319 -2.037297 -0.907218 1.532083 0.752937 -5.213858 1.857636 0.963998 0.083312 0.637472 2.298532 -0.625071 -2.909637 1.522323 1.903851 -1.607601 0.591519 -0.62303 0.059349 -1.574654 -0.337788 -0.84152 0.195948 -1.580222 0.991777 0.422209 -1.736866 2.49482 -2.996796 1.880402 -0.043361 -1.222227 0.777344 -1.535598 -0.469452 -2.368032 -1.41548 -1.127217 1.808927 -1.1011 -2.904148 -1.994446 -0.184412 -1.039722 1.828773 0.064091 -0.768958 1.378991 -1.826563 -0.564546 -1.527349 -1.130498 0.479412 0.977415 -1.673969 -1.675712 2.935242 -2.475461 0.624947 2.877056 2.051772 -0.620619 -0.448904 1.803434 1.107528 -2.344468 -0.205977 -0.32332 -0.825842 -0.284009 -0.365417 -0.860415 -0.075197 0.098394 -0.791157 -2.297596 0.415314 -1.282405 -2.960562 -0.883877 -2.566484 1.317931 2.989985 0.611536 -0.093247 0.477286 4.058204 -3.000949 -2.421392 1.613335 0.729012 0.853652 1.007087 3.412008 -1.818344 0.590611 -0.227743 7.279706 -4.256198 2.180265 4.632013 0.960118 1.367733 3.095062 1.157468 -0.144215 0.716302 0.174977 -0.966508 -0.598053 -0.477901 -4.497374 -0.144741 0.486183 -0.997972 0.493338 0.052108 -0.108746 4.545551 -1.950377 -0.797972 3.517592 3.390594 0.203764 -0.798855 -0.53113 3.993868 0.042187 -0.967202 2.532331 0.238559 -1.647276 -2.54956 2.474287 0.373567 1.470811 1.753486 2.022929 0.168159 -0.536052 -2.005484 -0.092122 1.21652 0.338338 0.399244 -0.992989 -1.243207 -0.772976 1.035038 0.030676 0.818528 1.077255 2.133408 -0.229208 0.716483 -2.074336 2.322981 -5.111393 0.193178 3.979417 3.038101 1.390478 2.561665 5.431076 1.843478 -1.843496 1.356816 -2.285333 -3.397465 -0.773227 -0.171878 0.523601 -2.235778 -1.117826 2.014191 -1.309761 -2.570076 2.1588 1.496534 -1.270134 0.561744 3.0005 1.544283 0.815803 -0.347886 -0.873556 0.567807 1.346344 -2.007056 0.391821 -3.612521 0.405009 -2.501925 -0.243165 0.775121 0.262391 2.921732 -1.618695 1.170268 -2.960779 3.66685 0.20173 -0.57928 2.08991 0.169476 1.819395 2.247216 0.368715 0.459648 1.513229 1.019695 -2.193834 0.73932 -1.864962 -0.138843 0.691031 -0.83882 0.670816 -3.125572 -1.643868 1.175148 -4.666044 -0.193738 -0.569832 -0.359568 -3.18106 -0.055258 4.432291 2.015001 -5.539832 0.743381 -0.995494 -5.465631 -0.700173 -5.702761 1.329841 -0.156228 -2.64868 1.108677 -1.552335 -1.912921 -2.014506 1.690051 -0.788737 0.714326 2.300818 -2.125489 0.435952 -0.178409 0.759435 -1.334912 2.758476 -1.110384 1.717129 0.665095 0.1071 1.144973 -1.616639 1.726981 0.140251 -2.228624 -1.973978 -0.280349 -5.883604
chair_chair 0.91326 1.747876 1.356353 -0.06203 2.073696 -3.429917 -1.179817 0.996004 -1.776813 -2.284058 -0.670329 -1.457195 -0.387963 2.734202 -0.152882 -0.491487 -1.163669 0.256559 -5.388325 0.948578 2.188794 -1.782702 -0.163167 1.797647 0.669033 1.414458 -1.327261 1.323458 0.334689 -1.960013 0.218718 1.345952 0.254072 1.29755 0.311953 -1.294307 0.463704 2.95364 0.118854 0.115643 -1.708785 2.041317 1.869844 2.121497 1.387915 2.318901 -0.168281 0.077897 2.098694 -0.192389 -3.476863 4.504515 -2.309361 -1.051627 -0.303901 0.774474 2.215916 -2.038685 1.109597 1.496644 -0.327453 1.153913 1.99577 0.347259 1.729153 -1.6332 0.38289 1.278412 -3.128093 4.330079 -1.325385 -1.34956 -0.886591 0.493486 0.066967 0.379422 0.422722 0.719355 2.616156 0.654058 1.238558 5.963039 2.181561 -0.448545 -0.170144 1.954174 0.42369 -2.256313 -0.987447 2.238897 -0.8979 -0.02367 0.494857 0.837059 -0.770989 -0.912293 1.26156 -0.543896 -2.056836 -0.834261 2.056729 -1.75947 2.385825 0.047431 -1.708112 -0.655518 -1.340701 -0.083947 -1.692346 2.439836 -0.188794 1.210788 -1.149189 -3.355575 -1.081637 1.872906 1.261229 -3.628968 -0.715479 -0.78117 -1.405465 0.216563 1.42992 1.642033 -0.746844 -2.84445 1.538206 0.468427 -1.560694 0.187577 3.457192 -2.163678 1.448601 0.086389 -0.753697 0.586494 1.086515 -0.891919 -0.824146 0.379544 -1.265318 -0.623138 0.916692 1.482284 2.114596 1.193491 2.941092 -0.096012 -1.19997 1.720367 -0.717505 2.034942 -0.561969 -0.403225 1.097316 -0.503261 -1.904112 -0.225548 1.474962 -1.375444 -0.607053 -2.772741 -2.577121 -0.219536 2.087007 1.86137 0.031449 -0.002952 -0.632286 2.927378 -1.566013 0.105229 0.347436 -3.486711 0.241032 0.100224 -1.118095 -0.618682 1.600718 0.34609 -0.692095 -0.606916 -1.766388 -0.068827 -0.096681 2.17889 5.330657 -2.162359 -1.563892 0.303813 -0.243058 -5.092618 -1.843346 0.832262 4.379839 -2.665358 -2.31971 0.293589 -1.5393 -1.301509 -1.103636 1.32935 -0.058717 0.052003 -0.749101 0.576126 0.894416 2.845891 -1.287931 -0.390268 -1.811554 0.883478 1.17021 4.071251 0.233254 -0.321414 -0.54007 -1.518317 0.042527 -0.05388 1.052033 1.932321 -2.337945 1.473521 -1.266877 3.302005 -1.807005 -0.835118 -0.913546 5.356241 -0.333836 0.65942 0.064262 -1.005636 -0.047904 0.947878 0.824034 -0.51596 -0.611051 -1.192014 -1.124334 1.890807 -3.504203 0.142495 3.319217 -0.488602 -0.973617 0.925142 -1.851244 0.330446 0.22399 1.525157 -2.188584 0.060319 -0.238974 1.8821 -1.430036 0.08114 1.635191 1.538637 -1.953948 -0.368861 2.896886 -0.917661 -1.001216 -0.186611 1.382753 -0.77575 0.791244 -2.26924 1.918341 -3.922912 0.06117 0.583711 -3.780233 0.530562 0.487826 3.193902 -2.089536 -2.035357 -0.593726 -1.468282 1.786476 1.279764 -0.272763 -1.58988 0.315035 1.790384 0.567719 1.491213 0.303461 1.306285 -1.272823 -2.951013 1.542494 -0.664187 -0.275953 -0.248408 2.237931 1.528046 -1.221171 0.867016 1.416397 -2.165687 2.876031 4.786336 0.830623 -0.790545 -28.18684 -1.154346 -0.310645 0.291163 3.088148 1.114874 -1.093941 -1.690027 -2.326073 0.562579 -3.173421 1.056167 1.51946 1.487683 0.713865 -0.964519 -0.354503 0.076444 1.138986 -0.840338 1.20354 -2.523844 1.276059 0.681948 0.635414 2.047695 -0.57161 -0.463147 -0.48236 0.303151 3.210892 1.127019 -0.617633 -1.112645 0.028167 0.090897 -0.170263 -0.859952 2.091499 -1.716895 -0.966664 -2.296971 -1.649382 4.153759 2.844028 -1.843753 -2.367155 -1.300205 -1.166734 0.904205 0.052564 1.102429 1.394536 -2.035776 3.516217 1.434523 3.579184 4.133443 -1.056498 -1.182592 -2.416025 1.072461 -1.66247 -2.336874 0.331898 -1.795897 -3.555729 -2.244707 2.246029 -2.537564 -0.679426 1.873026 -0.563853 -9.202535 1.215167 -3.678772 1.731712 0.661186 -3.221431 0.609375 -0.024202 0.754629 1.184926 -0.946988 -1.990677 -2.516184 0.494243 0.685826 -0.261144 2.455552 0.331744 -0.394224 0.577668 0.197852 -0.959973 0.617936 -1.4447 -1.635992 -0.111237 -0.13981 0.351842 -1.083836 2.833111 -2.35403 -0.321774 -1.274039 -2.453849 0.557702 1.180851 1.973336 2.244378 -0.49616 0.923224 -1.961251 2.201827 -1.576919 3.139275 0.440033 -1.463161 -1.624316 -4.78095 0.74348 -2.32032 -2.198336 -0.18363 1.676915 -1.285263 0.981996 -0.190037 -0.473412 -0.410244 -0.79167 0.0545 3.002532 0.641638 -1.368134 0.055612 -2.597384 -1.627416 0.722546 -0.05466 -0.917954 0.385046 -1.678123 0.484508 -0.918412 1.132009 1.20791 0.053954 1.257506 -4.677122 0.068846 -1.624119 0.453936 2.669863 -1.705397 -1.297169 -0.576089 0.62948 -1.424285 0.061948 0.765705 -0.8461 1.271343 0.190282 1.579283 1.291471 0.298914 2.610663 0.250727 -1.352538 -1.419773 1.245025 1.384442 -0.474847 -1.18356 2.392476 -0.267685 -0.695274 1.616465 -0.425567 0.189632 -1.635733 0.495958 -0.798474 -0.361366 -0.619827 -0.272141 -1.22508 1.386657 -1.713227 -0.035919 1.746892 -1.621514 0.481114 -2.506605 1.406419 0.603775 0.062155 0.355758 -2.712851 -2.680263 -1.900377 -0.069864 -0.371426 0.083247 0.928382 1.404842 -2.485293 1.717468 -2.559263 -0.202463 -1.596681 -1.844333 -0.475011 0.587076 -1.707662 -1.85214 -1.201914 -1.34947 -2.268243 -0.805373 -1.90585 -0.928797 -3.696618 2.234064 0.524521 -1.980148 -2.09446 -0.922637 -1.792474 -7.261301 -1.160537 -2.162694 -1.011246 -3.189792 -0.805574 -3.145618 -0.401731 -0.592609 2.471499 1.89101 1.513472 -0.433304 -1.149532 4.906662 -1.057641 -1.022714 -2.876578 1.128624 0.319496 -2.031685 0.997538 -3.02595 1.407293 -3.24731 0.918705 -2.125959 2.102053 0.728488 -1.418104 -1.007838 -0.83152 2.857524 -0.949411 -0.115337 -0.044317 1.245093 2.975066 -1.276831 -2.185448 2.32392 0.179823 -1.588453 -3.132046 -0.537856 -1.397891 -1.145749 4.404661 -0.331216 -1.629466 -0.657438 2.395401 -1.243494 -2.742103 0.743359 -0.751596 0.821805 -1.335189 -0.084993 -1.165804 -1.032468 0.846915 0.697545 -5.106406 2.158575 3.822674 2.386873 0.109526 0.666817 -0.660867 0.59658 1.242033 -0.419328 -0.930464 0.660805 0.136175 -1.496987 -0.210111 -1.094699 3.316308 -0.512155 2.528041 1.31643 -2.374553 -2.360014 1.529428 1.490165 -0.554836 0.882981 -0.956804 2.693188 1.012601 -2.165474 0.810345 1.870209 0.876471 -0.770828 -3.718642 -0.446274 -0.593029 1.130243 -0.330171 -1.124953 -0.940174 -0.567873 0.821802 -0.708946 1.125787 1.107041 -2.277318 0.544179 -0.635459 0.092389 1.661299 0.076237 0.462635 -0.657085 0.258412 2.105254 3.479892 -2.042938 0.27689 1.35188 1.817484 1.937144 1.073448 -0.979749 -1.858991 5.008356 1.876691 -0.143748 0.360248 -0.923882 -1.973332 1.442499 -1.868343 -2.380432 -1.741704 -1.24685 -1.587344 -0.657977 0.570753 1.492897 0.014019 -0.496399 -0.486337 -0.279 1.046578 3.752469 2.521455 -0.999729 -0.88539 1.970605 -2.177777 0.754716 -0.617262 -0.551502 0.011101 1.510843 -1.549927 1.461222 0.992517 0.830688 1.814232 -1.366737 1.296036 -0.132297 0.880192 -2.276169 1.343901 -0.566884 -0.143192 -1.209768 0.269014 1.96749 -0.311722 -0.429402 0.686614 -2.977391 -1.999929 1.497198 -0.559198 0.320146 1.686851 -1.935815 0.087437 2.222948 -1.391135 0.377063 0.476194 -2.33325 0.291572 0.576248 -0.111405 -4.257504 3.119732 -0.899197 -1.065624 0.269759 -2.663244 1.053646 -0.714599 -0.665243 2.188646 0.941457 -2.553478 -0.783526 0.157612 0.736477 -0.751502 1.377258 1.149725 0.129343 0.392658 0.309836 -3.519585 0.666638 0.371001 0.181631 -0.901982 0.149366 -1.251903 -0.465469 2.166132 -0.919703 -1.297641 -3.14136 0.286457 0.977354
